digraph Tree {
node [shape=box, style="filled, rounded", color="black", fontname="helvetica"] ;
edge [fontname="helvetica"] ;
0 [label="x[105] <= 0.04\ngini = 0.11\nsamples = 4074\nvalue = [[6379, 127]\n[6009, 497]\n[6343, 163]\n[5997, 509]\n[6473, 33]\n[6476, 30]\n[6480, 26]\n[6439, 67]\n[5357, 1149]\n[5125, 1381]\n[5705, 801]\n[5508, 998]\n[6364, 142]\n[6324, 182]\n[6350, 156]\n[6261, 245]]", fillcolor="#fefbf9"] ;
1 [label="x[39] <= 0.04\ngini = 0.11\nsamples = 1927\nvalue = [[3054, 70]\n[2836, 288]\n[3069, 55]\n[2906, 218]\n[3102, 22]\n[3106, 18]\n[3116, 8]\n[3082, 42]\n[2591, 533]\n[2361, 763]\n[2819, 305]\n[2710, 414]\n[3059, 65]\n[3024, 100]\n[3043, 81]\n[2982, 142]]", fillcolor="#fefaf8"] ;
0 -> 1 [labeldistance=2.5, labelangle=45, headlabel="True"] ;
2 [label="x[16] <= 0.07\ngini = 0.11\nsamples = 1162\nvalue = [[1866, 26]\n[1771, 121]\n[1847, 45]\n[1732, 160]\n[1879, 13]\n[1879, 13]\n[1889, 3]\n[1863, 29]\n[1586, 306]\n[1515, 377]\n[1651, 241]\n[1597, 295]\n[1865, 27]\n[1835, 57]\n[1826, 66]\n[1779, 113]]", fillcolor="#fefcfa"] ;
1 -> 2 ;
3 [label="x[106] <= 0.12\ngini = 0.11\nsamples = 1000\nvalue = [[1618, 22]\n[1531, 109]\n[1595, 45]\n[1484, 156]\n[1629, 11]\n[1628, 12]\n[1637, 3]\n[1611, 29]\n[1406, 234]\n[1349, 291]\n[1417, 223]\n[1371, 269]\n[1620, 20]\n[1597, 43]\n[1578, 62]\n[1529, 111]]", fillcolor="#fffdfb"] ;
2 -> 3 ;
4 [label="x[29] <= 0.11\ngini = 0.11\nsamples = 565\nvalue = [[946, 7]\n[905, 48]\n[930, 23]\n[862, 91]\n[947, 6]\n[946, 7]\n[952, 1]\n[937, 16]\n[848, 105]\n[814, 139]\n[810, 143]\n[736, 217]\n[941, 12]\n[932, 21]\n[920, 33]\n[869, 84]]", fillcolor="#fefbf9"] ;
3 -> 4 ;
5 [label="x[29] <= 0.01\ngini = 0.11\nsamples = 380\nvalue = [[620, 3]\n[596, 27]\n[609, 14]\n[559, 64]\n[621, 2]\n[621, 2]\n[622, 1]\n[614, 9]\n[563, 60]\n[542, 81]\n[518, 105]\n[446, 177]\n[616, 7]\n[611, 12]\n[604, 19]\n[583, 40]]", fillcolor="#fdf8f4"] ;
4 -> 5 ;
6 [label="x[25] <= 0.13\ngini = 0.1\nsamples = 30\nvalue = [[50, 0]\n[43, 7]\n[45, 5]\n[46, 4]\n[50, 0]\n[50, 0]\n[49, 1]\n[50, 0]\n[49, 1]\n[47, 3]\n[29, 21]\n[46, 4]\n[50, 0]\n[50, 0]\n[46, 4]\n[50, 0]]", fillcolor="#fbede3"] ;
5 -> 6 ;
7 [label="x[62] <= 0.06\ngini = 0.09\nsamples = 27\nvalue = [[44, 0]\n[42, 2]\n[39, 5]\n[40, 4]\n[44, 0]\n[44, 0]\n[43, 1]\n[44, 0]\n[44, 0]\n[41, 3]\n[23, 21]\n[40, 4]\n[44, 0]\n[44, 0]\n[40, 4]\n[44, 0]]", fillcolor="#fae7d9"] ;
6 -> 7 ;
8 [label="x[89] <= 0.03\ngini = 0.06\nsamples = 21\nvalue = [[31, 0]\n[31, 0]\n[30, 1]\n[28, 3]\n[31, 0]\n[31, 0]\n[30, 1]\n[31, 0]\n[31, 0]\n[30, 1]\n[10, 21]\n[27, 4]\n[31, 0]\n[31, 0]\n[31, 0]\n[31, 0]]", fillcolor="#f4c9aa"] ;
7 -> 8 ;
9 [label="x[41] <= 0.03\ngini = 0.09\nsamples = 10\nvalue = [[13, 0]\n[13, 0]\n[12, 1]\n[11, 2]\n[13, 0]\n[13, 0]\n[12, 1]\n[13, 0]\n[13, 0]\n[13, 0]\n[8, 5]\n[9, 4]\n[13, 0]\n[13, 0]\n[13, 0]\n[13, 0]]", fillcolor="#fae6d8"] ;
8 -> 9 ;
10 [label="gini = 0.0\nsamples = 3\nvalue = [[4, 0]\n[4, 0]\n[4, 0]\n[4, 0]\n[4, 0]\n[4, 0]\n[4, 0]\n[4, 0]\n[4, 0]\n[4, 0]\n[4, 0]\n[0, 4]\n[4, 0]\n[4, 0]\n[4, 0]\n[4, 0]]", fillcolor="#e58139"] ;
9 -> 10 ;
11 [label="x[83] <= 0.0\ngini = 0.08\nsamples = 7\nvalue = [[9, 0]\n[9, 0]\n[8, 1]\n[7, 2]\n[9, 0]\n[9, 0]\n[8, 1]\n[9, 0]\n[9, 0]\n[9, 0]\n[4, 5]\n[9, 0]\n[9, 0]\n[9, 0]\n[9, 0]\n[9, 0]]", fillcolor="#f7d8c1"] ;
9 -> 11 ;
12 [label="gini = 0.0\nsamples = 1\nvalue = [[2, 0]\n[2, 0]\n[2, 0]\n[0, 2]\n[2, 0]\n[2, 0]\n[2, 0]\n[2, 0]\n[2, 0]\n[2, 0]\n[2, 0]\n[2, 0]\n[2, 0]\n[2, 0]\n[2, 0]\n[2, 0]]", fillcolor="#e58139"] ;
11 -> 12 ;
13 [label="x[84] <= 0.01\ngini = 0.06\nsamples = 6\nvalue = [[7, 0]\n[7, 0]\n[6, 1]\n[7, 0]\n[7, 0]\n[7, 0]\n[6, 1]\n[7, 0]\n[7, 0]\n[7, 0]\n[2, 5]\n[7, 0]\n[7, 0]\n[7, 0]\n[7, 0]\n[7, 0]]", fillcolor="#f2c09c"] ;
11 -> 13 ;
14 [label="x[57] <= 0.01\ngini = 0.06\nsamples = 2\nvalue = [[2, 0]\n[2, 0]\n[1, 1]\n[2, 0]\n[2, 0]\n[2, 0]\n[1, 1]\n[2, 0]\n[2, 0]\n[2, 0]\n[2, 0]\n[2, 0]\n[2, 0]\n[2, 0]\n[2, 0]\n[2, 0]]", fillcolor="#f3c7a7"] ;
13 -> 14 ;
15 [label="gini = 0.0\nsamples = 1\nvalue = [[1, 0]\n[1, 0]\n[0, 1]\n[1, 0]\n[1, 0]\n[1, 0]\n[1, 0]\n[1, 0]\n[1, 0]\n[1, 0]\n[1, 0]\n[1, 0]\n[1, 0]\n[1, 0]\n[1, 0]\n[1, 0]]", fillcolor="#e58139"] ;
14 -> 15 ;
16 [label="gini = 0.0\nsamples = 1\nvalue = [[1, 0]\n[1, 0]\n[1, 0]\n[1, 0]\n[1, 0]\n[1, 0]\n[0, 1]\n[1, 0]\n[1, 0]\n[1, 0]\n[1, 0]\n[1, 0]\n[1, 0]\n[1, 0]\n[1, 0]\n[1, 0]]", fillcolor="#e58139"] ;
14 -> 16 ;
17 [label="gini = 0.0\nsamples = 4\nvalue = [[5, 0]\n[5, 0]\n[5, 0]\n[5, 0]\n[5, 0]\n[5, 0]\n[5, 0]\n[5, 0]\n[5, 0]\n[5, 0]\n[0, 5]\n[5, 0]\n[5, 0]\n[5, 0]\n[5, 0]\n[5, 0]]", fillcolor="#e58139"] ;
13 -> 17 ;
18 [label="x[86] <= 0.01\ngini = 0.03\nsamples = 11\nvalue = [[18, 0]\n[18, 0]\n[18, 0]\n[17, 1]\n[18, 0]\n[18, 0]\n[18, 0]\n[18, 0]\n[18, 0]\n[17, 1]\n[2, 16]\n[18, 0]\n[18, 0]\n[18, 0]\n[18, 0]\n[18, 0]]", fillcolor="#eb9e66"] ;
8 -> 18 ;
19 [label="x[16] <= 0.01\ngini = 0.06\nsamples = 2\nvalue = [[2, 0]\n[2, 0]\n[2, 0]\n[1, 1]\n[2, 0]\n[2, 0]\n[2, 0]\n[2, 0]\n[2, 0]\n[1, 1]\n[2, 0]\n[2, 0]\n[2, 0]\n[2, 0]\n[2, 0]\n[2, 0]]", fillcolor="#f3c7a7"] ;
18 -> 19 ;
20 [label="gini = 0.0\nsamples = 1\nvalue = [[1, 0]\n[1, 0]\n[1, 0]\n[1, 0]\n[1, 0]\n[1, 0]\n[1, 0]\n[1, 0]\n[1, 0]\n[0, 1]\n[1, 0]\n[1, 0]\n[1, 0]\n[1, 0]\n[1, 0]\n[1, 0]]", fillcolor="#e58139"] ;
19 -> 20 ;
21 [label="gini = 0.0\nsamples = 1\nvalue = [[1, 0]\n[1, 0]\n[1, 0]\n[0, 1]\n[1, 0]\n[1, 0]\n[1, 0]\n[1, 0]\n[1, 0]\n[1, 0]\n[1, 0]\n[1, 0]\n[1, 0]\n[1, 0]\n[1, 0]\n[1, 0]]", fillcolor="#e58139"] ;
19 -> 21 ;
22 [label="gini = 0.0\nsamples = 9\nvalue = [[16, 0]\n[16, 0]\n[16, 0]\n[16, 0]\n[16, 0]\n[16, 0]\n[16, 0]\n[16, 0]\n[16, 0]\n[16, 0]\n[0, 16]\n[16, 0]\n[16, 0]\n[16, 0]\n[16, 0]\n[16, 0]]", fillcolor="#e58139"] ;
18 -> 22 ;
23 [label="x[63] <= 0.07\ngini = 0.09\nsamples = 6\nvalue = [[13, 0]\n[11, 2]\n[9, 4]\n[12, 1]\n[13, 0]\n[13, 0]\n[13, 0]\n[13, 0]\n[13, 0]\n[11, 2]\n[13, 0]\n[13, 0]\n[13, 0]\n[13, 0]\n[9, 4]\n[13, 0]]", fillcolor="#fbebe0"] ;
7 -> 23 ;
24 [label="x[63] <= 0.03\ngini = 0.09\nsamples = 5\nvalue = [[9, 0]\n[7, 2]\n[5, 4]\n[8, 1]\n[9, 0]\n[9, 0]\n[9, 0]\n[9, 0]\n[9, 0]\n[7, 2]\n[9, 0]\n[9, 0]\n[9, 0]\n[9, 0]\n[9, 0]\n[9, 0]]", fillcolor="#f9e2d1"] ;
23 -> 24 ;
25 [label="x[61] <= 0.03\ngini = 0.08\nsamples = 3\nvalue = [[5, 0]\n[3, 2]\n[5, 0]\n[4, 1]\n[5, 0]\n[5, 0]\n[5, 0]\n[5, 0]\n[5, 0]\n[3, 2]\n[5, 0]\n[5, 0]\n[5, 0]\n[5, 0]\n[5, 0]\n[5, 0]]", fillcolor="#f8dbc6"] ;
24 -> 25 ;
26 [label="x[74] <= 0.04\ngini = 0.06\nsamples = 2\nvalue = [[3, 0]\n[1, 2]\n[3, 0]\n[2, 1]\n[3, 0]\n[3, 0]\n[3, 0]\n[3, 0]\n[3, 0]\n[3, 0]\n[3, 0]\n[3, 0]\n[3, 0]\n[3, 0]\n[3, 0]\n[3, 0]]", fillcolor="#f2bf9b"] ;
25 -> 26 ;
27 [label="gini = 0.0\nsamples = 1\nvalue = [[2, 0]\n[0, 2]\n[2, 0]\n[2, 0]\n[2, 0]\n[2, 0]\n[2, 0]\n[2, 0]\n[2, 0]\n[2, 0]\n[2, 0]\n[2, 0]\n[2, 0]\n[2, 0]\n[2, 0]\n[2, 0]]", fillcolor="#e58139"] ;
26 -> 27 ;
28 [label="gini = 0.0\nsamples = 1\nvalue = [[1, 0]\n[1, 0]\n[1, 0]\n[0, 1]\n[1, 0]\n[1, 0]\n[1, 0]\n[1, 0]\n[1, 0]\n[1, 0]\n[1, 0]\n[1, 0]\n[1, 0]\n[1, 0]\n[1, 0]\n[1, 0]]", fillcolor="#e58139"] ;
26 -> 28 ;
29 [label="gini = 0.0\nsamples = 1\nvalue = [[2, 0]\n[2, 0]\n[2, 0]\n[2, 0]\n[2, 0]\n[2, 0]\n[2, 0]\n[2, 0]\n[2, 0]\n[0, 2]\n[2, 0]\n[2, 0]\n[2, 0]\n[2, 0]\n[2, 0]\n[2, 0]]", fillcolor="#e58139"] ;
25 -> 29 ;
30 [label="gini = 0.0\nsamples = 2\nvalue = [[4, 0]\n[4, 0]\n[0, 4]\n[4, 0]\n[4, 0]\n[4, 0]\n[4, 0]\n[4, 0]\n[4, 0]\n[4, 0]\n[4, 0]\n[4, 0]\n[4, 0]\n[4, 0]\n[4, 0]\n[4, 0]]", fillcolor="#e58139"] ;
24 -> 30 ;
31 [label="gini = 0.0\nsamples = 1\nvalue = [[4, 0]\n[4, 0]\n[4, 0]\n[4, 0]\n[4, 0]\n[4, 0]\n[4, 0]\n[4, 0]\n[4, 0]\n[4, 0]\n[4, 0]\n[4, 0]\n[4, 0]\n[4, 0]\n[0, 4]\n[4, 0]]", fillcolor="#e58139"] ;
23 -> 31 ;
32 [label="x[35] <= 0.02\ngini = 0.03\nsamples = 3\nvalue = [[6, 0]\n[1, 5]\n[6, 0]\n[6, 0]\n[6, 0]\n[6, 0]\n[6, 0]\n[6, 0]\n[5, 1]\n[6, 0]\n[6, 0]\n[6, 0]\n[6, 0]\n[6, 0]\n[6, 0]\n[6, 0]]", fillcolor="#eda876"] ;
6 -> 32 ;
33 [label="gini = 0.0\nsamples = 1\nvalue = [[1, 0]\n[1, 0]\n[1, 0]\n[1, 0]\n[1, 0]\n[1, 0]\n[1, 0]\n[1, 0]\n[0, 1]\n[1, 0]\n[1, 0]\n[1, 0]\n[1, 0]\n[1, 0]\n[1, 0]\n[1, 0]]", fillcolor="#e58139"] ;
32 -> 33 ;
34 [label="gini = 0.0\nsamples = 2\nvalue = [[5, 0]\n[0, 5]\n[5, 0]\n[5, 0]\n[5, 0]\n[5, 0]\n[5, 0]\n[5, 0]\n[5, 0]\n[5, 0]\n[5, 0]\n[5, 0]\n[5, 0]\n[5, 0]\n[5, 0]\n[5, 0]]", fillcolor="#e58139"] ;
32 -> 34 ;
35 [label="x[63] <= 0.03\ngini = 0.1\nsamples = 350\nvalue = [[570, 3]\n[553, 20]\n[564, 9]\n[513, 60]\n[571, 2]\n[571, 2]\n[573, 0]\n[564, 9]\n[514, 59]\n[495, 78]\n[489, 84]\n[400, 173]\n[566, 7]\n[561, 12]\n[558, 15]\n[533, 40]]", fillcolor="#fdf7f2"] ;
5 -> 35 ;
36 [label="x[48] <= 0.05\ngini = 0.11\nsamples = 158\nvalue = [[263, 1]\n[254, 10]\n[258, 6]\n[219, 45]\n[262, 2]\n[264, 0]\n[264, 0]\n[262, 2]\n[240, 24]\n[220, 44]\n[222, 42]\n[205, 59]\n[259, 5]\n[259, 5]\n[256, 8]\n[253, 11]]", fillcolor="#fef9f5"] ;
35 -> 36 ;
37 [label="x[67] <= 0.06\ngini = 0.11\nsamples = 149\nvalue = [[245, 1]\n[241, 5]\n[240, 6]\n[202, 44]\n[244, 2]\n[246, 0]\n[246, 0]\n[244, 2]\n[223, 23]\n[207, 39]\n[204, 42]\n[187, 59]\n[241, 5]\n[241, 5]\n[244, 2]\n[235, 11]]", fillcolor="#fdf7f3"] ;
36 -> 37 ;
38 [label="x[74] <= 0.02\ngini = 0.11\nsamples = 140\nvalue = [[227, 1]\n[223, 5]\n[222, 6]\n[184, 44]\n[226, 2]\n[228, 0]\n[228, 0]\n[226, 2]\n[205, 23]\n[189, 39]\n[187, 41]\n[183, 45]\n[223, 5]\n[223, 5]\n[226, 2]\n[220, 8]]", fillcolor="#fef8f4"] ;
37 -> 38 ;
39 [label="x[16] <= 0.02\ngini = 0.08\nsamples = 20\nvalue = [[27, 0]\n[27, 0]\n[26, 1]\n[25, 2]\n[27, 0]\n[27, 0]\n[27, 0]\n[27, 0]\n[26, 1]\n[24, 3]\n[27, 0]\n[12, 15]\n[26, 1]\n[24, 3]\n[26, 1]\n[27, 0]]", fillcolor="#f8ddca"] ;
38 -> 39 ;
40 [label="x[71] <= 0.02\ngini = 0.06\nsamples = 2\nvalue = [[3, 0]\n[3, 0]\n[3, 0]\n[1, 2]\n[3, 0]\n[3, 0]\n[3, 0]\n[3, 0]\n[3, 0]\n[3, 0]\n[3, 0]\n[3, 0]\n[2, 1]\n[3, 0]\n[3, 0]\n[3, 0]]", fillcolor="#f2bf9b"] ;
39 -> 40 ;
41 [label="gini = 0.0\nsamples = 1\nvalue = [[1, 0]\n[1, 0]\n[1, 0]\n[1, 0]\n[1, 0]\n[1, 0]\n[1, 0]\n[1, 0]\n[1, 0]\n[1, 0]\n[1, 0]\n[1, 0]\n[0, 1]\n[1, 0]\n[1, 0]\n[1, 0]]", fillcolor="#e58139"] ;
40 -> 41 ;
42 [label="gini = 0.0\nsamples = 1\nvalue = [[2, 0]\n[2, 0]\n[2, 0]\n[0, 2]\n[2, 0]\n[2, 0]\n[2, 0]\n[2, 0]\n[2, 0]\n[2, 0]\n[2, 0]\n[2, 0]\n[2, 0]\n[2, 0]\n[2, 0]\n[2, 0]]", fillcolor="#e58139"] ;
40 -> 42 ;
43 [label="x[76] <= 0.04\ngini = 0.07\nsamples = 18\nvalue = [[24, 0]\n[24, 0]\n[23, 1]\n[24, 0]\n[24, 0]\n[24, 0]\n[24, 0]\n[24, 0]\n[23, 1]\n[21, 3]\n[24, 0]\n[9, 15]\n[24, 0]\n[21, 3]\n[23, 1]\n[24, 0]]", fillcolor="#f6d1b7"] ;
39 -> 43 ;
44 [label="x[65] <= 0.02\ngini = 0.06\nsamples = 2\nvalue = [[3, 0]\n[3, 0]\n[3, 0]\n[3, 0]\n[3, 0]\n[3, 0]\n[3, 0]\n[3, 0]\n[3, 0]\n[1, 2]\n[3, 0]\n[3, 0]\n[3, 0]\n[3, 0]\n[2, 1]\n[3, 0]]", fillcolor="#f2bf9b"] ;
43 -> 44 ;
45 [label="gini = 0.0\nsamples = 1\nvalue = [[2, 0]\n[2, 0]\n[2, 0]\n[2, 0]\n[2, 0]\n[2, 0]\n[2, 0]\n[2, 0]\n[2, 0]\n[0, 2]\n[2, 0]\n[2, 0]\n[2, 0]\n[2, 0]\n[2, 0]\n[2, 0]]", fillcolor="#e58139"] ;
44 -> 45 ;
46 [label="gini = 0.0\nsamples = 1\nvalue = [[1, 0]\n[1, 0]\n[1, 0]\n[1, 0]\n[1, 0]\n[1, 0]\n[1, 0]\n[1, 0]\n[1, 0]\n[1, 0]\n[1, 0]\n[1, 0]\n[1, 0]\n[1, 0]\n[0, 1]\n[1, 0]]", fillcolor="#e58139"] ;
44 -> 46 ;
47 [label="x[101] <= 0.12\ngini = 0.06\nsamples = 16\nvalue = [[21, 0]\n[21, 0]\n[20, 1]\n[21, 0]\n[21, 0]\n[21, 0]\n[21, 0]\n[21, 0]\n[20, 1]\n[20, 1]\n[21, 0]\n[6, 15]\n[21, 0]\n[18, 3]\n[21, 0]\n[21, 0]]", fillcolor="#f2c29f"] ;
43 -> 47 ;
48 [label="x[75] <= 0.04\ngini = 0.06\nsamples = 2\nvalue = [[3, 0]\n[3, 0]\n[2, 1]\n[3, 0]\n[3, 0]\n[3, 0]\n[3, 0]\n[3, 0]\n[3, 0]\n[3, 0]\n[3, 0]\n[3, 0]\n[3, 0]\n[1, 2]\n[3, 0]\n[3, 0]]", fillcolor="#f2bf9b"] ;
47 -> 48 ;
49 [label="gini = 0.0\nsamples = 1\nvalue = [[2, 0]\n[2, 0]\n[2, 0]\n[2, 0]\n[2, 0]\n[2, 0]\n[2, 0]\n[2, 0]\n[2, 0]\n[2, 0]\n[2, 0]\n[2, 0]\n[2, 0]\n[0, 2]\n[2, 0]\n[2, 0]]", fillcolor="#e58139"] ;
48 -> 49 ;
50 [label="gini = 0.0\nsamples = 1\nvalue = [[1, 0]\n[1, 0]\n[0, 1]\n[1, 0]\n[1, 0]\n[1, 0]\n[1, 0]\n[1, 0]\n[1, 0]\n[1, 0]\n[1, 0]\n[1, 0]\n[1, 0]\n[1, 0]\n[1, 0]\n[1, 0]]", fillcolor="#e58139"] ;
48 -> 50 ;
51 [label="x[30] <= 0.22\ngini = 0.04\nsamples = 14\nvalue = [[18, 0]\n[18, 0]\n[18, 0]\n[18, 0]\n[18, 0]\n[18, 0]\n[18, 0]\n[18, 0]\n[17, 1]\n[17, 1]\n[18, 0]\n[3, 15]\n[18, 0]\n[17, 1]\n[18, 0]\n[18, 0]]", fillcolor="#eeab7a"] ;
47 -> 51 ;
52 [label="x[97] <= 0.11\ngini = 0.01\nsamples = 12\nvalue = [[16, 0]\n[16, 0]\n[16, 0]\n[16, 0]\n[16, 0]\n[16, 0]\n[16, 0]\n[16, 0]\n[16, 0]\n[15, 1]\n[16, 0]\n[1, 15]\n[16, 0]\n[16, 0]\n[16, 0]\n[16, 0]]", fillcolor="#e89153"] ;
51 -> 52 ;
53 [label="gini = 0.0\nsamples = 1\nvalue = [[1, 0]\n[1, 0]\n[1, 0]\n[1, 0]\n[1, 0]\n[1, 0]\n[1, 0]\n[1, 0]\n[1, 0]\n[0, 1]\n[1, 0]\n[1, 0]\n[1, 0]\n[1, 0]\n[1, 0]\n[1, 0]]", fillcolor="#e58139"] ;
52 -> 53 ;
54 [label="gini = 0.0\nsamples = 11\nvalue = [[15, 0]\n[15, 0]\n[15, 0]\n[15, 0]\n[15, 0]\n[15, 0]\n[15, 0]\n[15, 0]\n[15, 0]\n[15, 0]\n[15, 0]\n[0, 15]\n[15, 0]\n[15, 0]\n[15, 0]\n[15, 0]]", fillcolor="#e58139"] ;
52 -> 54 ;
55 [label="x[95] <= 0.03\ngini = 0.06\nsamples = 2\nvalue = [[2, 0]\n[2, 0]\n[2, 0]\n[2, 0]\n[2, 0]\n[2, 0]\n[2, 0]\n[2, 0]\n[1, 1]\n[2, 0]\n[2, 0]\n[2, 0]\n[2, 0]\n[1, 1]\n[2, 0]\n[2, 0]]", fillcolor="#f3c7a7"] ;
51 -> 55 ;
56 [label="gini = 0.0\nsamples = 1\nvalue = [[1, 0]\n[1, 0]\n[1, 0]\n[1, 0]\n[1, 0]\n[1, 0]\n[1, 0]\n[1, 0]\n[0, 1]\n[1, 0]\n[1, 0]\n[1, 0]\n[1, 0]\n[1, 0]\n[1, 0]\n[1, 0]]", fillcolor="#e58139"] ;
55 -> 56 ;
57 [label="gini = 0.0\nsamples = 1\nvalue = [[1, 0]\n[1, 0]\n[1, 0]\n[1, 0]\n[1, 0]\n[1, 0]\n[1, 0]\n[1, 0]\n[1, 0]\n[1, 0]\n[1, 0]\n[1, 0]\n[1, 0]\n[0, 1]\n[1, 0]\n[1, 0]]", fillcolor="#e58139"] ;
55 -> 57 ;
58 [label="x[27] <= 0.01\ngini = 0.11\nsamples = 120\nvalue = [[200, 1]\n[196, 5]\n[196, 5]\n[159, 42]\n[199, 2]\n[201, 0]\n[201, 0]\n[199, 2]\n[179, 22]\n[165, 36]\n[160, 41]\n[171, 30]\n[197, 4]\n[199, 2]\n[200, 1]\n[193, 8]]", fillcolor="#fdf8f3"] ;
38 -> 58 ;
59 [label="x[85] <= 0.03\ngini = 0.08\nsamples = 16\nvalue = [[26, 1]\n[24, 3]\n[26, 1]\n[12, 15]\n[27, 0]\n[27, 0]\n[27, 0]\n[27, 0]\n[27, 0]\n[25, 2]\n[24, 3]\n[26, 1]\n[27, 0]\n[27, 0]\n[27, 0]\n[26, 1]]", fillcolor="#f8ddca"] ;
58 -> 59 ;
60 [label="x[41] <= 0.1\ngini = 0.06\nsamples = 12\nvalue = [[21, 0]\n[21, 0]\n[20, 1]\n[6, 15]\n[21, 0]\n[21, 0]\n[21, 0]\n[21, 0]\n[21, 0]\n[19, 2]\n[20, 1]\n[20, 1]\n[21, 0]\n[21, 0]\n[21, 0]\n[20, 1]]", fillcolor="#f3c3a1"] ;
59 -> 60 ;
61 [label="x[0] <= 0.03\ngini = 0.03\nsamples = 9\nvalue = [[17, 0]\n[17, 0]\n[17, 0]\n[2, 15]\n[17, 0]\n[17, 0]\n[17, 0]\n[17, 0]\n[17, 0]\n[17, 0]\n[17, 0]\n[16, 1]\n[17, 0]\n[17, 0]\n[17, 0]\n[16, 1]]", fillcolor="#eb9f68"] ;
60 -> 61 ;
62 [label="x[92] <= 0.02\ngini = 0.06\nsamples = 2\nvalue = [[2, 0]\n[2, 0]\n[2, 0]\n[2, 0]\n[2, 0]\n[2, 0]\n[2, 0]\n[2, 0]\n[2, 0]\n[2, 0]\n[2, 0]\n[1, 1]\n[2, 0]\n[2, 0]\n[2, 0]\n[1, 1]]", fillcolor="#f3c7a7"] ;
61 -> 62 ;
63 [label="gini = 0.0\nsamples = 1\nvalue = [[1, 0]\n[1, 0]\n[1, 0]\n[1, 0]\n[1, 0]\n[1, 0]\n[1, 0]\n[1, 0]\n[1, 0]\n[1, 0]\n[1, 0]\n[1, 0]\n[1, 0]\n[1, 0]\n[1, 0]\n[0, 1]]", fillcolor="#e58139"] ;
62 -> 63 ;
64 [label="gini = 0.0\nsamples = 1\nvalue = [[1, 0]\n[1, 0]\n[1, 0]\n[1, 0]\n[1, 0]\n[1, 0]\n[1, 0]\n[1, 0]\n[1, 0]\n[1, 0]\n[1, 0]\n[0, 1]\n[1, 0]\n[1, 0]\n[1, 0]\n[1, 0]]", fillcolor="#e58139"] ;
62 -> 64 ;
65 [label="gini = 0.0\nsamples = 7\nvalue = [[15, 0]\n[15, 0]\n[15, 0]\n[0, 15]\n[15, 0]\n[15, 0]\n[15, 0]\n[15, 0]\n[15, 0]\n[15, 0]\n[15, 0]\n[15, 0]\n[15, 0]\n[15, 0]\n[15, 0]\n[15, 0]]", fillcolor="#e58139"] ;
61 -> 65 ;
66 [label="x[88] <= 0.01\ngini = 0.08\nsamples = 3\nvalue = [[4, 0]\n[4, 0]\n[3, 1]\n[4, 0]\n[4, 0]\n[4, 0]\n[4, 0]\n[4, 0]\n[4, 0]\n[2, 2]\n[3, 1]\n[4, 0]\n[4, 0]\n[4, 0]\n[4, 0]\n[4, 0]]", fillcolor="#f7d9c3"] ;
60 -> 66 ;
67 [label="gini = 0.0\nsamples = 1\nvalue = [[2, 0]\n[2, 0]\n[2, 0]\n[2, 0]\n[2, 0]\n[2, 0]\n[2, 0]\n[2, 0]\n[2, 0]\n[0, 2]\n[2, 0]\n[2, 0]\n[2, 0]\n[2, 0]\n[2, 0]\n[2, 0]]", fillcolor="#e58139"] ;
66 -> 67 ;
68 [label="x[74] <= 0.05\ngini = 0.06\nsamples = 2\nvalue = [[2, 0]\n[2, 0]\n[1, 1]\n[2, 0]\n[2, 0]\n[2, 0]\n[2, 0]\n[2, 0]\n[2, 0]\n[2, 0]\n[1, 1]\n[2, 0]\n[2, 0]\n[2, 0]\n[2, 0]\n[2, 0]]", fillcolor="#f3c7a7"] ;
66 -> 68 ;
69 [label="gini = 0.0\nsamples = 1\nvalue = [[1, 0]\n[1, 0]\n[0, 1]\n[1, 0]\n[1, 0]\n[1, 0]\n[1, 0]\n[1, 0]\n[1, 0]\n[1, 0]\n[1, 0]\n[1, 0]\n[1, 0]\n[1, 0]\n[1, 0]\n[1, 0]]", fillcolor="#e58139"] ;
68 -> 69 ;
70 [label="gini = 0.0\nsamples = 1\nvalue = [[1, 0]\n[1, 0]\n[1, 0]\n[1, 0]\n[1, 0]\n[1, 0]\n[1, 0]\n[1, 0]\n[1, 0]\n[1, 0]\n[0, 1]\n[1, 0]\n[1, 0]\n[1, 0]\n[1, 0]\n[1, 0]]", fillcolor="#e58139"] ;
68 -> 70 ;
71 [label="x[83] <= 0.04\ngini = 0.08\nsamples = 4\nvalue = [[5, 1]\n[3, 3]\n[6, 0]\n[6, 0]\n[6, 0]\n[6, 0]\n[6, 0]\n[6, 0]\n[6, 0]\n[6, 0]\n[4, 2]\n[6, 0]\n[6, 0]\n[6, 0]\n[6, 0]\n[6, 0]]", fillcolor="#f7d7c0"] ;
59 -> 71 ;
72 [label="gini = 0.0\nsamples = 2\nvalue = [[3, 0]\n[0, 3]\n[3, 0]\n[3, 0]\n[3, 0]\n[3, 0]\n[3, 0]\n[3, 0]\n[3, 0]\n[3, 0]\n[3, 0]\n[3, 0]\n[3, 0]\n[3, 0]\n[3, 0]\n[3, 0]]", fillcolor="#e58139"] ;
71 -> 72 ;
73 [label="x[24] <= 0.14\ngini = 0.06\nsamples = 2\nvalue = [[2, 1]\n[3, 0]\n[3, 0]\n[3, 0]\n[3, 0]\n[3, 0]\n[3, 0]\n[3, 0]\n[3, 0]\n[3, 0]\n[1, 2]\n[3, 0]\n[3, 0]\n[3, 0]\n[3, 0]\n[3, 0]]", fillcolor="#f2bf9b"] ;
71 -> 73 ;
74 [label="gini = 0.0\nsamples = 1\nvalue = [[2, 0]\n[2, 0]\n[2, 0]\n[2, 0]\n[2, 0]\n[2, 0]\n[2, 0]\n[2, 0]\n[2, 0]\n[2, 0]\n[0, 2]\n[2, 0]\n[2, 0]\n[2, 0]\n[2, 0]\n[2, 0]]", fillcolor="#e58139"] ;
73 -> 74 ;
75 [label="gini = 0.0\nsamples = 1\nvalue = [[0, 1]\n[1, 0]\n[1, 0]\n[1, 0]\n[1, 0]\n[1, 0]\n[1, 0]\n[1, 0]\n[1, 0]\n[1, 0]\n[1, 0]\n[1, 0]\n[1, 0]\n[1, 0]\n[1, 0]\n[1, 0]]", fillcolor="#e58139"] ;
73 -> 75 ;
76 [label="x[38] <= 0.05\ngini = 0.11\nsamples = 104\nvalue = [[174, 0]\n[172, 2]\n[170, 4]\n[147, 27]\n[172, 2]\n[174, 0]\n[174, 0]\n[172, 2]\n[152, 22]\n[140, 34]\n[136, 38]\n[145, 29]\n[170, 4]\n[172, 2]\n[173, 1]\n[167, 7]]", fillcolor="#fdf7f3"] ;
58 -> 76 ;
77 [label="x[19] <= 0.06\ngini = 0.1\nsamples = 91\nvalue = [[154, 0]\n[152, 2]\n[150, 4]\n[132, 22]\n[152, 2]\n[154, 0]\n[154, 0]\n[152, 2]\n[143, 11]\n[121, 33]\n[118, 36]\n[125, 29]\n[150, 4]\n[152, 2]\n[154, 0]\n[147, 7]]", fillcolor="#fdf6f1"] ;
76 -> 77 ;
78 [label="x[39] <= 0.03\ngini = 0.1\nsamples = 80\nvalue = [[131, 0]\n[129, 2]\n[127, 4]\n[109, 22]\n[129, 2]\n[131, 0]\n[131, 0]\n[131, 0]\n[120, 11]\n[98, 33]\n[99, 32]\n[113, 18]\n[130, 1]\n[130, 1]\n[131, 0]\n[126, 5]]", fillcolor="#fdf4ee"] ;
77 -> 78 ;
79 [label="x[24] <= 0.15\ngini = 0.1\nsamples = 73\nvalue = [[116, 0]\n[114, 2]\n[112, 4]\n[94, 22]\n[114, 2]\n[116, 0]\n[116, 0]\n[116, 0]\n[106, 10]\n[85, 31]\n[96, 20]\n[98, 18]\n[115, 1]\n[115, 1]\n[116, 0]\n[111, 5]]", fillcolor="#fdf5ef"] ;
78 -> 79 ;
80 [label="x[79] <= 0.23\ngini = 0.1\nsamples = 54\nvalue = [[85, 0]\n[83, 2]\n[84, 1]\n[63, 22]\n[83, 2]\n[85, 0]\n[85, 0]\n[85, 0]\n[84, 1]\n[64, 21]\n[69, 16]\n[69, 16]\n[84, 1]\n[84, 1]\n[85, 0]\n[83, 2]]", fillcolor="#fcf1e9"] ;
79 -> 80 ;
81 [label="x[42] <= 0.06\ngini = 0.03\nsamples = 6\nvalue = [[13, 0]\n[13, 0]\n[13, 0]\n[2, 11]\n[13, 0]\n[13, 0]\n[13, 0]\n[13, 0]\n[13, 0]\n[12, 1]\n[13, 0]\n[13, 0]\n[13, 0]\n[12, 1]\n[13, 0]\n[13, 0]]", fillcolor="#eda775"] ;
80 -> 81 ;
82 [label="gini = 0.0\nsamples = 4\nvalue = [[11, 0]\n[11, 0]\n[11, 0]\n[0, 11]\n[11, 0]\n[11, 0]\n[11, 0]\n[11, 0]\n[11, 0]\n[11, 0]\n[11, 0]\n[11, 0]\n[11, 0]\n[11, 0]\n[11, 0]\n[11, 0]]", fillcolor="#e58139"] ;
81 -> 82 ;
83 [label="x[48] <= 0.02\ngini = 0.06\nsamples = 2\nvalue = [[2, 0]\n[2, 0]\n[2, 0]\n[2, 0]\n[2, 0]\n[2, 0]\n[2, 0]\n[2, 0]\n[2, 0]\n[1, 1]\n[2, 0]\n[2, 0]\n[2, 0]\n[1, 1]\n[2, 0]\n[2, 0]]", fillcolor="#f3c7a7"] ;
81 -> 83 ;
84 [label="gini = 0.0\nsamples = 1\nvalue = [[1, 0]\n[1, 0]\n[1, 0]\n[1, 0]\n[1, 0]\n[1, 0]\n[1, 0]\n[1, 0]\n[1, 0]\n[0, 1]\n[1, 0]\n[1, 0]\n[1, 0]\n[1, 0]\n[1, 0]\n[1, 0]]", fillcolor="#e58139"] ;
83 -> 84 ;
85 [label="gini = 0.0\nsamples = 1\nvalue = [[1, 0]\n[1, 0]\n[1, 0]\n[1, 0]\n[1, 0]\n[1, 0]\n[1, 0]\n[1, 0]\n[1, 0]\n[1, 0]\n[1, 0]\n[1, 0]\n[1, 0]\n[0, 1]\n[1, 0]\n[1, 0]]", fillcolor="#e58139"] ;
83 -> 85 ;
86 [label="x[54] <= 0.04\ngini = 0.1\nsamples = 48\nvalue = [[72, 0]\n[70, 2]\n[71, 1]\n[61, 11]\n[70, 2]\n[72, 0]\n[72, 0]\n[72, 0]\n[71, 1]\n[52, 20]\n[56, 16]\n[56, 16]\n[71, 1]\n[72, 0]\n[72, 0]\n[70, 2]]", fillcolor="#fcf1e9"] ;
80 -> 86 ;
87 [label="x[62] <= 0.03\ngini = 0.1\nsamples = 35\nvalue = [[49, 0]\n[47, 2]\n[48, 1]\n[38, 11]\n[49, 0]\n[49, 0]\n[49, 0]\n[49, 0]\n[48, 1]\n[43, 6]\n[34, 15]\n[37, 12]\n[48, 1]\n[49, 0]\n[49, 0]\n[49, 0]]", fillcolor="#fceee5"] ;
86 -> 87 ;
88 [label="x[3] <= 0.01\ngini = 0.07\nsamples = 10\nvalue = [[16, 0]\n[14, 2]\n[16, 0]\n[13, 3]\n[16, 0]\n[16, 0]\n[16, 0]\n[16, 0]\n[15, 1]\n[16, 0]\n[6, 10]\n[16, 0]\n[16, 0]\n[16, 0]\n[16, 0]\n[16, 0]]", fillcolor="#f5cfb3"] ;
87 -> 88 ;
89 [label="x[61] <= 0.01\ngini = 0.08\nsamples = 4\nvalue = [[6, 0]\n[4, 2]\n[6, 0]\n[3, 3]\n[6, 0]\n[6, 0]\n[6, 0]\n[6, 0]\n[5, 1]\n[6, 0]\n[6, 0]\n[6, 0]\n[6, 0]\n[6, 0]\n[6, 0]\n[6, 0]]", fillcolor="#f7d7c0"] ;
88 -> 89 ;
90 [label="gini = 0.0\nsamples = 2\nvalue = [[3, 0]\n[3, 0]\n[3, 0]\n[0, 3]\n[3, 0]\n[3, 0]\n[3, 0]\n[3, 0]\n[3, 0]\n[3, 0]\n[3, 0]\n[3, 0]\n[3, 0]\n[3, 0]\n[3, 0]\n[3, 0]]", fillcolor="#e58139"] ;
89 -> 90 ;
91 [label="x[39] <= 0.01\ngini = 0.06\nsamples = 2\nvalue = [[3, 0]\n[1, 2]\n[3, 0]\n[3, 0]\n[3, 0]\n[3, 0]\n[3, 0]\n[3, 0]\n[2, 1]\n[3, 0]\n[3, 0]\n[3, 0]\n[3, 0]\n[3, 0]\n[3, 0]\n[3, 0]]", fillcolor="#f2bf9b"] ;
89 -> 91 ;
92 [label="gini = 0.0\nsamples = 1\nvalue = [[2, 0]\n[0, 2]\n[2, 0]\n[2, 0]\n[2, 0]\n[2, 0]\n[2, 0]\n[2, 0]\n[2, 0]\n[2, 0]\n[2, 0]\n[2, 0]\n[2, 0]\n[2, 0]\n[2, 0]\n[2, 0]]", fillcolor="#e58139"] ;
91 -> 92 ;
93 [label="gini = 0.0\nsamples = 1\nvalue = [[1, 0]\n[1, 0]\n[1, 0]\n[1, 0]\n[1, 0]\n[1, 0]\n[1, 0]\n[1, 0]\n[0, 1]\n[1, 0]\n[1, 0]\n[1, 0]\n[1, 0]\n[1, 0]\n[1, 0]\n[1, 0]]", fillcolor="#e58139"] ;
91 -> 93 ;
94 [label="gini = 0.0\nsamples = 6\nvalue = [[10, 0]\n[10, 0]\n[10, 0]\n[10, 0]\n[10, 0]\n[10, 0]\n[10, 0]\n[10, 0]\n[10, 0]\n[10, 0]\n[0, 10]\n[10, 0]\n[10, 0]\n[10, 0]\n[10, 0]\n[10, 0]]", fillcolor="#e58139"] ;
88 -> 94 ;
95 [label="x[5] <= 0.22\ngini = 0.09\nsamples = 25\nvalue = [[33, 0]\n[33, 0]\n[32, 1]\n[25, 8]\n[33, 0]\n[33, 0]\n[33, 0]\n[33, 0]\n[33, 0]\n[27, 6]\n[28, 5]\n[21, 12]\n[32, 1]\n[33, 0]\n[33, 0]\n[33, 0]]", fillcolor="#fbeadf"] ;
87 -> 95 ;
96 [label="x[47] <= 0.04\ngini = 0.06\nsamples = 10\nvalue = [[13, 0]\n[13, 0]\n[12, 1]\n[13, 0]\n[13, 0]\n[13, 0]\n[13, 0]\n[13, 0]\n[13, 0]\n[12, 1]\n[12, 1]\n[4, 9]\n[12, 1]\n[13, 0]\n[13, 0]\n[13, 0]]", fillcolor="#f3c7a7"] ;
95 -> 96 ;
97 [label="x[59] <= 0.03\ngini = 0.06\nsamples = 2\nvalue = [[2, 0]\n[2, 0]\n[2, 0]\n[2, 0]\n[2, 0]\n[2, 0]\n[2, 0]\n[2, 0]\n[2, 0]\n[1, 1]\n[1, 1]\n[2, 0]\n[2, 0]\n[2, 0]\n[2, 0]\n[2, 0]]", fillcolor="#f3c7a7"] ;
96 -> 97 ;
98 [label="gini = 0.0\nsamples = 1\nvalue = [[1, 0]\n[1, 0]\n[1, 0]\n[1, 0]\n[1, 0]\n[1, 0]\n[1, 0]\n[1, 0]\n[1, 0]\n[0, 1]\n[1, 0]\n[1, 0]\n[1, 0]\n[1, 0]\n[1, 0]\n[1, 0]]", fillcolor="#e58139"] ;
97 -> 98 ;
99 [label="gini = 0.0\nsamples = 1\nvalue = [[1, 0]\n[1, 0]\n[1, 0]\n[1, 0]\n[1, 0]\n[1, 0]\n[1, 0]\n[1, 0]\n[1, 0]\n[1, 0]\n[0, 1]\n[1, 0]\n[1, 0]\n[1, 0]\n[1, 0]\n[1, 0]]", fillcolor="#e58139"] ;
97 -> 99 ;
100 [label="x[13] <= 0.12\ngini = 0.04\nsamples = 8\nvalue = [[11, 0]\n[11, 0]\n[10, 1]\n[11, 0]\n[11, 0]\n[11, 0]\n[11, 0]\n[11, 0]\n[11, 0]\n[11, 0]\n[11, 0]\n[2, 9]\n[10, 1]\n[11, 0]\n[11, 0]\n[11, 0]]", fillcolor="#eead7e"] ;
96 -> 100 ;
101 [label="x[44] <= 0.04\ngini = 0.02\nsamples = 7\nvalue = [[10, 0]\n[10, 0]\n[10, 0]\n[10, 0]\n[10, 0]\n[10, 0]\n[10, 0]\n[10, 0]\n[10, 0]\n[10, 0]\n[10, 0]\n[1, 9]\n[9, 1]\n[10, 0]\n[10, 0]\n[10, 0]]", fillcolor="#ea9a61"] ;
100 -> 101 ;
102 [label="gini = 0.0\nsamples = 6\nvalue = [[9, 0]\n[9, 0]\n[9, 0]\n[9, 0]\n[9, 0]\n[9, 0]\n[9, 0]\n[9, 0]\n[9, 0]\n[9, 0]\n[9, 0]\n[0, 9]\n[9, 0]\n[9, 0]\n[9, 0]\n[9, 0]]", fillcolor="#e58139"] ;
101 -> 102 ;
103 [label="gini = 0.0\nsamples = 1\nvalue = [[1, 0]\n[1, 0]\n[1, 0]\n[1, 0]\n[1, 0]\n[1, 0]\n[1, 0]\n[1, 0]\n[1, 0]\n[1, 0]\n[1, 0]\n[1, 0]\n[0, 1]\n[1, 0]\n[1, 0]\n[1, 0]]", fillcolor="#e58139"] ;
101 -> 103 ;
104 [label="gini = 0.0\nsamples = 1\nvalue = [[1, 0]\n[1, 0]\n[0, 1]\n[1, 0]\n[1, 0]\n[1, 0]\n[1, 0]\n[1, 0]\n[1, 0]\n[1, 0]\n[1, 0]\n[1, 0]\n[1, 0]\n[1, 0]\n[1, 0]\n[1, 0]]", fillcolor="#e58139"] ;
100 -> 104 ;
105 [label="x[74] <= 0.06\ngini = 0.09\nsamples = 15\nvalue = [[20, 0]\n[20, 0]\n[20, 0]\n[12, 8]\n[20, 0]\n[20, 0]\n[20, 0]\n[20, 0]\n[20, 0]\n[15, 5]\n[16, 4]\n[17, 3]\n[20, 0]\n[20, 0]\n[20, 0]\n[20, 0]]", fillcolor="#fae5d7"] ;
95 -> 105 ;
106 [label="x[5] <= 0.28\ngini = 0.06\nsamples = 9\nvalue = [[12, 0]\n[12, 0]\n[12, 0]\n[4, 8]\n[12, 0]\n[12, 0]\n[12, 0]\n[12, 0]\n[12, 0]\n[11, 1]\n[11, 1]\n[10, 2]\n[12, 0]\n[12, 0]\n[12, 0]\n[12, 0]]", fillcolor="#f4c9aa"] ;
105 -> 106 ;
107 [label="x[82] <= 0.01\ngini = 0.04\nsamples = 7\nvalue = [[10, 0]\n[10, 0]\n[10, 0]\n[2, 8]\n[10, 0]\n[10, 0]\n[10, 0]\n[10, 0]\n[10, 0]\n[9, 1]\n[9, 1]\n[10, 0]\n[10, 0]\n[10, 0]\n[10, 0]\n[10, 0]]", fillcolor="#efb184"] ;
106 -> 107 ;
108 [label="gini = 0.0\nsamples = 1\nvalue = [[1, 0]\n[1, 0]\n[1, 0]\n[1, 0]\n[1, 0]\n[1, 0]\n[1, 0]\n[1, 0]\n[1, 0]\n[1, 0]\n[0, 1]\n[1, 0]\n[1, 0]\n[1, 0]\n[1, 0]\n[1, 0]]", fillcolor="#e58139"] ;
107 -> 108 ;
109 [label="x[41] <= 0.05\ngini = 0.02\nsamples = 6\nvalue = [[9, 0]\n[9, 0]\n[9, 0]\n[1, 8]\n[9, 0]\n[9, 0]\n[9, 0]\n[9, 0]\n[9, 0]\n[8, 1]\n[9, 0]\n[9, 0]\n[9, 0]\n[9, 0]\n[9, 0]\n[9, 0]]", fillcolor="#eb9d65"] ;
107 -> 109 ;
110 [label="gini = 0.0\nsamples = 1\nvalue = [[1, 0]\n[1, 0]\n[1, 0]\n[1, 0]\n[1, 0]\n[1, 0]\n[1, 0]\n[1, 0]\n[1, 0]\n[0, 1]\n[1, 0]\n[1, 0]\n[1, 0]\n[1, 0]\n[1, 0]\n[1, 0]]", fillcolor="#e58139"] ;
109 -> 110 ;
111 [label="gini = 0.0\nsamples = 5\nvalue = [[8, 0]\n[8, 0]\n[8, 0]\n[0, 8]\n[8, 0]\n[8, 0]\n[8, 0]\n[8, 0]\n[8, 0]\n[8, 0]\n[8, 0]\n[8, 0]\n[8, 0]\n[8, 0]\n[8, 0]\n[8, 0]]", fillcolor="#e58139"] ;
109 -> 111 ;
112 [label="gini = 0.0\nsamples = 2\nvalue = [[2, 0]\n[2, 0]\n[2, 0]\n[2, 0]\n[2, 0]\n[2, 0]\n[2, 0]\n[2, 0]\n[2, 0]\n[2, 0]\n[2, 0]\n[0, 2]\n[2, 0]\n[2, 0]\n[2, 0]\n[2, 0]]", fillcolor="#e58139"] ;
106 -> 112 ;
113 [label="x[40] <= 0.05\ngini = 0.07\nsamples = 6\nvalue = [[8, 0]\n[8, 0]\n[8, 0]\n[8, 0]\n[8, 0]\n[8, 0]\n[8, 0]\n[8, 0]\n[8, 0]\n[4, 4]\n[5, 3]\n[7, 1]\n[8, 0]\n[8, 0]\n[8, 0]\n[8, 0]]", fillcolor="#f6d4bc"] ;
105 -> 113 ;
114 [label="x[57] <= 0.05\ngini = 0.04\nsamples = 4\nvalue = [[5, 0]\n[5, 0]\n[5, 0]\n[5, 0]\n[5, 0]\n[5, 0]\n[5, 0]\n[5, 0]\n[5, 0]\n[1, 4]\n[5, 0]\n[4, 1]\n[5, 0]\n[5, 0]\n[5, 0]\n[5, 0]]", fillcolor="#eeae80"] ;
113 -> 114 ;
115 [label="gini = 0.0\nsamples = 1\nvalue = [[1, 0]\n[1, 0]\n[1, 0]\n[1, 0]\n[1, 0]\n[1, 0]\n[1, 0]\n[1, 0]\n[1, 0]\n[1, 0]\n[1, 0]\n[0, 1]\n[1, 0]\n[1, 0]\n[1, 0]\n[1, 0]]", fillcolor="#e58139"] ;
114 -> 115 ;
116 [label="gini = 0.0\nsamples = 3\nvalue = [[4, 0]\n[4, 0]\n[4, 0]\n[4, 0]\n[4, 0]\n[4, 0]\n[4, 0]\n[4, 0]\n[4, 0]\n[0, 4]\n[4, 0]\n[4, 0]\n[4, 0]\n[4, 0]\n[4, 0]\n[4, 0]]", fillcolor="#e58139"] ;
114 -> 116 ;
117 [label="gini = 0.0\nsamples = 2\nvalue = [[3, 0]\n[3, 0]\n[3, 0]\n[3, 0]\n[3, 0]\n[3, 0]\n[3, 0]\n[3, 0]\n[3, 0]\n[3, 0]\n[0, 3]\n[3, 0]\n[3, 0]\n[3, 0]\n[3, 0]\n[3, 0]]", fillcolor="#e58139"] ;
113 -> 117 ;
118 [label="x[23] <= 0.01\ngini = 0.07\nsamples = 13\nvalue = [[23, 0]\n[23, 0]\n[23, 0]\n[23, 0]\n[21, 2]\n[23, 0]\n[23, 0]\n[23, 0]\n[23, 0]\n[9, 14]\n[22, 1]\n[19, 4]\n[23, 0]\n[23, 0]\n[23, 0]\n[21, 2]]", fillcolor="#f6d3b9"] ;
86 -> 118 ;
119 [label="x[61] <= 0.05\ngini = 0.06\nsamples = 2\nvalue = [[3, 0]\n[3, 0]\n[3, 0]\n[3, 0]\n[1, 2]\n[3, 0]\n[3, 0]\n[3, 0]\n[3, 0]\n[3, 0]\n[3, 0]\n[3, 0]\n[3, 0]\n[3, 0]\n[3, 0]\n[2, 1]]", fillcolor="#f2bf9b"] ;
118 -> 119 ;
120 [label="gini = 0.0\nsamples = 1\nvalue = [[1, 0]\n[1, 0]\n[1, 0]\n[1, 0]\n[1, 0]\n[1, 0]\n[1, 0]\n[1, 0]\n[1, 0]\n[1, 0]\n[1, 0]\n[1, 0]\n[1, 0]\n[1, 0]\n[1, 0]\n[0, 1]]", fillcolor="#e58139"] ;
119 -> 120 ;
121 [label="gini = 0.0\nsamples = 1\nvalue = [[2, 0]\n[2, 0]\n[2, 0]\n[2, 0]\n[0, 2]\n[2, 0]\n[2, 0]\n[2, 0]\n[2, 0]\n[2, 0]\n[2, 0]\n[2, 0]\n[2, 0]\n[2, 0]\n[2, 0]\n[2, 0]]", fillcolor="#e58139"] ;
119 -> 121 ;
122 [label="x[39] <= 0.01\ngini = 0.06\nsamples = 11\nvalue = [[20, 0]\n[20, 0]\n[20, 0]\n[20, 0]\n[20, 0]\n[20, 0]\n[20, 0]\n[20, 0]\n[20, 0]\n[6, 14]\n[19, 1]\n[16, 4]\n[20, 0]\n[20, 0]\n[20, 0]\n[19, 1]]", fillcolor="#f2c2a0"] ;
118 -> 122 ;
123 [label="x[64] <= 0.05\ngini = 0.05\nsamples = 3\nvalue = [[4, 0]\n[4, 0]\n[4, 0]\n[4, 0]\n[4, 0]\n[4, 0]\n[4, 0]\n[4, 0]\n[4, 0]\n[4, 0]\n[3, 1]\n[1, 3]\n[4, 0]\n[4, 0]\n[4, 0]\n[4, 0]]", fillcolor="#f0b68c"] ;
122 -> 123 ;
124 [label="gini = 0.0\nsamples = 2\nvalue = [[3, 0]\n[3, 0]\n[3, 0]\n[3, 0]\n[3, 0]\n[3, 0]\n[3, 0]\n[3, 0]\n[3, 0]\n[3, 0]\n[3, 0]\n[0, 3]\n[3, 0]\n[3, 0]\n[3, 0]\n[3, 0]]", fillcolor="#e58139"] ;
123 -> 124 ;
125 [label="gini = 0.0\nsamples = 1\nvalue = [[1, 0]\n[1, 0]\n[1, 0]\n[1, 0]\n[1, 0]\n[1, 0]\n[1, 0]\n[1, 0]\n[1, 0]\n[1, 0]\n[0, 1]\n[1, 0]\n[1, 0]\n[1, 0]\n[1, 0]\n[1, 0]]", fillcolor="#e58139"] ;
123 -> 125 ;
126 [label="x[41] <= 0.11\ngini = 0.03\nsamples = 8\nvalue = [[16, 0]\n[16, 0]\n[16, 0]\n[16, 0]\n[16, 0]\n[16, 0]\n[16, 0]\n[16, 0]\n[16, 0]\n[2, 14]\n[16, 0]\n[15, 1]\n[16, 0]\n[16, 0]\n[16, 0]\n[15, 1]]", fillcolor="#eca16b"] ;
122 -> 126 ;
127 [label="gini = 0.0\nsamples = 6\nvalue = [[14, 0]\n[14, 0]\n[14, 0]\n[14, 0]\n[14, 0]\n[14, 0]\n[14, 0]\n[14, 0]\n[14, 0]\n[0, 14]\n[14, 0]\n[14, 0]\n[14, 0]\n[14, 0]\n[14, 0]\n[14, 0]]", fillcolor="#e58139"] ;
126 -> 127 ;
128 [label="x[85] <= 0.05\ngini = 0.06\nsamples = 2\nvalue = [[2, 0]\n[2, 0]\n[2, 0]\n[2, 0]\n[2, 0]\n[2, 0]\n[2, 0]\n[2, 0]\n[2, 0]\n[2, 0]\n[2, 0]\n[1, 1]\n[2, 0]\n[2, 0]\n[2, 0]\n[1, 1]]", fillcolor="#f3c7a7"] ;
126 -> 128 ;
129 [label="gini = 0.0\nsamples = 1\nvalue = [[1, 0]\n[1, 0]\n[1, 0]\n[1, 0]\n[1, 0]\n[1, 0]\n[1, 0]\n[1, 0]\n[1, 0]\n[1, 0]\n[1, 0]\n[1, 0]\n[1, 0]\n[1, 0]\n[1, 0]\n[0, 1]]", fillcolor="#e58139"] ;
128 -> 129 ;
130 [label="gini = 0.0\nsamples = 1\nvalue = [[1, 0]\n[1, 0]\n[1, 0]\n[1, 0]\n[1, 0]\n[1, 0]\n[1, 0]\n[1, 0]\n[1, 0]\n[1, 0]\n[1, 0]\n[0, 1]\n[1, 0]\n[1, 0]\n[1, 0]\n[1, 0]]", fillcolor="#e58139"] ;
128 -> 130 ;
131 [label="x[104] <= 0.29\ngini = 0.1\nsamples = 19\nvalue = [[31, 0]\n[31, 0]\n[28, 3]\n[31, 0]\n[31, 0]\n[31, 0]\n[31, 0]\n[31, 0]\n[22, 9]\n[21, 10]\n[27, 4]\n[29, 2]\n[31, 0]\n[31, 0]\n[31, 0]\n[28, 3]]", fillcolor="#fbede3"] ;
79 -> 131 ;
132 [label="x[88] <= 0.03\ngini = 0.09\nsamples = 12\nvalue = [[18, 0]\n[18, 0]\n[15, 3]\n[18, 0]\n[18, 0]\n[18, 0]\n[18, 0]\n[18, 0]\n[10, 8]\n[18, 0]\n[15, 3]\n[16, 2]\n[18, 0]\n[18, 0]\n[18, 0]\n[16, 2]]", fillcolor="#fae6d8"] ;
131 -> 132 ;
133 [label="x[63] <= 0.02\ngini = 0.06\nsamples = 3\nvalue = [[5, 0]\n[5, 0]\n[5, 0]\n[5, 0]\n[5, 0]\n[5, 0]\n[5, 0]\n[5, 0]\n[5, 0]\n[5, 0]\n[2, 3]\n[5, 0]\n[5, 0]\n[5, 0]\n[5, 0]\n[3, 2]]", fillcolor="#f3c4a3"] ;
132 -> 133 ;
134 [label="gini = 0.0\nsamples = 2\nvalue = [[3, 0]\n[3, 0]\n[3, 0]\n[3, 0]\n[3, 0]\n[3, 0]\n[3, 0]\n[3, 0]\n[3, 0]\n[3, 0]\n[0, 3]\n[3, 0]\n[3, 0]\n[3, 0]\n[3, 0]\n[3, 0]]", fillcolor="#e58139"] ;
133 -> 134 ;
135 [label="gini = 0.0\nsamples = 1\nvalue = [[2, 0]\n[2, 0]\n[2, 0]\n[2, 0]\n[2, 0]\n[2, 0]\n[2, 0]\n[2, 0]\n[2, 0]\n[2, 0]\n[2, 0]\n[2, 0]\n[2, 0]\n[2, 0]\n[2, 0]\n[0, 2]]", fillcolor="#e58139"] ;
133 -> 135 ;
136 [label="x[82] <= 0.04\ngini = 0.07\nsamples = 9\nvalue = [[13, 0]\n[13, 0]\n[10, 3]\n[13, 0]\n[13, 0]\n[13, 0]\n[13, 0]\n[13, 0]\n[5, 8]\n[13, 0]\n[13, 0]\n[11, 2]\n[13, 0]\n[13, 0]\n[13, 0]\n[13, 0]]", fillcolor="#f5cdb1"] ;
132 -> 136 ;
137 [label="x[66] <= 0.03\ngini = 0.05\nsamples = 8\nvalue = [[11, 0]\n[11, 0]\n[10, 1]\n[11, 0]\n[11, 0]\n[11, 0]\n[11, 0]\n[11, 0]\n[3, 8]\n[11, 0]\n[11, 0]\n[9, 2]\n[11, 0]\n[11, 0]\n[11, 0]\n[11, 0]]", fillcolor="#f1bd98"] ;
136 -> 137 ;
138 [label="gini = 0.0\nsamples = 2\nvalue = [[2, 0]\n[2, 0]\n[2, 0]\n[2, 0]\n[2, 0]\n[2, 0]\n[2, 0]\n[2, 0]\n[2, 0]\n[2, 0]\n[2, 0]\n[0, 2]\n[2, 0]\n[2, 0]\n[2, 0]\n[2, 0]]", fillcolor="#e58139"] ;
137 -> 138 ;
139 [label="x[29] <= 0.11\ngini = 0.02\nsamples = 6\nvalue = [[9, 0]\n[9, 0]\n[8, 1]\n[9, 0]\n[9, 0]\n[9, 0]\n[9, 0]\n[9, 0]\n[1, 8]\n[9, 0]\n[9, 0]\n[9, 0]\n[9, 0]\n[9, 0]\n[9, 0]\n[9, 0]]", fillcolor="#eb9d65"] ;
137 -> 139 ;
140 [label="gini = 0.0\nsamples = 5\nvalue = [[8, 0]\n[8, 0]\n[8, 0]\n[8, 0]\n[8, 0]\n[8, 0]\n[8, 0]\n[8, 0]\n[0, 8]\n[8, 0]\n[8, 0]\n[8, 0]\n[8, 0]\n[8, 0]\n[8, 0]\n[8, 0]]", fillcolor="#e58139"] ;
139 -> 140 ;
141 [label="gini = 0.0\nsamples = 1\nvalue = [[1, 0]\n[1, 0]\n[0, 1]\n[1, 0]\n[1, 0]\n[1, 0]\n[1, 0]\n[1, 0]\n[1, 0]\n[1, 0]\n[1, 0]\n[1, 0]\n[1, 0]\n[1, 0]\n[1, 0]\n[1, 0]]", fillcolor="#e58139"] ;
139 -> 141 ;
142 [label="gini = 0.0\nsamples = 1\nvalue = [[2, 0]\n[2, 0]\n[0, 2]\n[2, 0]\n[2, 0]\n[2, 0]\n[2, 0]\n[2, 0]\n[2, 0]\n[2, 0]\n[2, 0]\n[2, 0]\n[2, 0]\n[2, 0]\n[2, 0]\n[2, 0]]", fillcolor="#e58139"] ;
136 -> 142 ;
143 [label="x[7] <= 0.47\ngini = 0.05\nsamples = 7\nvalue = [[13, 0]\n[13, 0]\n[13, 0]\n[13, 0]\n[13, 0]\n[13, 0]\n[13, 0]\n[13, 0]\n[12, 1]\n[3, 10]\n[12, 1]\n[13, 0]\n[13, 0]\n[13, 0]\n[13, 0]\n[12, 1]]", fillcolor="#f0b88f"] ;
131 -> 143 ;
144 [label="gini = 0.0\nsamples = 1\nvalue = [[1, 0]\n[1, 0]\n[1, 0]\n[1, 0]\n[1, 0]\n[1, 0]\n[1, 0]\n[1, 0]\n[0, 1]\n[1, 0]\n[1, 0]\n[1, 0]\n[1, 0]\n[1, 0]\n[1, 0]\n[1, 0]]", fillcolor="#e58139"] ;
143 -> 144 ;
145 [label="x[44] <= 0.01\ngini = 0.04\nsamples = 6\nvalue = [[12, 0]\n[12, 0]\n[12, 0]\n[12, 0]\n[12, 0]\n[12, 0]\n[12, 0]\n[12, 0]\n[12, 0]\n[2, 10]\n[11, 1]\n[12, 0]\n[12, 0]\n[12, 0]\n[12, 0]\n[11, 1]]", fillcolor="#edaa79"] ;
143 -> 145 ;
146 [label="x[50] <= 0.07\ngini = 0.06\nsamples = 2\nvalue = [[2, 0]\n[2, 0]\n[2, 0]\n[2, 0]\n[2, 0]\n[2, 0]\n[2, 0]\n[2, 0]\n[2, 0]\n[2, 0]\n[1, 1]\n[2, 0]\n[2, 0]\n[2, 0]\n[2, 0]\n[1, 1]]", fillcolor="#f3c7a7"] ;
145 -> 146 ;
147 [label="gini = 0.0\nsamples = 1\nvalue = [[1, 0]\n[1, 0]\n[1, 0]\n[1, 0]\n[1, 0]\n[1, 0]\n[1, 0]\n[1, 0]\n[1, 0]\n[1, 0]\n[1, 0]\n[1, 0]\n[1, 0]\n[1, 0]\n[1, 0]\n[0, 1]]", fillcolor="#e58139"] ;
146 -> 147 ;
148 [label="gini = 0.0\nsamples = 1\nvalue = [[1, 0]\n[1, 0]\n[1, 0]\n[1, 0]\n[1, 0]\n[1, 0]\n[1, 0]\n[1, 0]\n[1, 0]\n[1, 0]\n[0, 1]\n[1, 0]\n[1, 0]\n[1, 0]\n[1, 0]\n[1, 0]]", fillcolor="#e58139"] ;
146 -> 148 ;
149 [label="gini = 0.0\nsamples = 4\nvalue = [[10, 0]\n[10, 0]\n[10, 0]\n[10, 0]\n[10, 0]\n[10, 0]\n[10, 0]\n[10, 0]\n[10, 0]\n[0, 10]\n[10, 0]\n[10, 0]\n[10, 0]\n[10, 0]\n[10, 0]\n[10, 0]]", fillcolor="#e58139"] ;
145 -> 149 ;
150 [label="x[54] <= 0.03\ngini = 0.04\nsamples = 7\nvalue = [[15, 0]\n[15, 0]\n[15, 0]\n[15, 0]\n[15, 0]\n[15, 0]\n[15, 0]\n[15, 0]\n[14, 1]\n[13, 2]\n[3, 12]\n[15, 0]\n[15, 0]\n[15, 0]\n[15, 0]\n[15, 0]]", fillcolor="#efb083"] ;
78 -> 150 ;
151 [label="gini = 0.0\nsamples = 5\nvalue = [[12, 0]\n[12, 0]\n[12, 0]\n[12, 0]\n[12, 0]\n[12, 0]\n[12, 0]\n[12, 0]\n[12, 0]\n[12, 0]\n[0, 12]\n[12, 0]\n[12, 0]\n[12, 0]\n[12, 0]\n[12, 0]]", fillcolor="#e58139"] ;
150 -> 151 ;
152 [label="x[103] <= 0.08\ngini = 0.06\nsamples = 2\nvalue = [[3, 0]\n[3, 0]\n[3, 0]\n[3, 0]\n[3, 0]\n[3, 0]\n[3, 0]\n[3, 0]\n[2, 1]\n[1, 2]\n[3, 0]\n[3, 0]\n[3, 0]\n[3, 0]\n[3, 0]\n[3, 0]]", fillcolor="#f2bf9b"] ;
150 -> 152 ;
153 [label="gini = 0.0\nsamples = 1\nvalue = [[2, 0]\n[2, 0]\n[2, 0]\n[2, 0]\n[2, 0]\n[2, 0]\n[2, 0]\n[2, 0]\n[2, 0]\n[0, 2]\n[2, 0]\n[2, 0]\n[2, 0]\n[2, 0]\n[2, 0]\n[2, 0]]", fillcolor="#e58139"] ;
152 -> 153 ;
154 [label="gini = 0.0\nsamples = 1\nvalue = [[1, 0]\n[1, 0]\n[1, 0]\n[1, 0]\n[1, 0]\n[1, 0]\n[1, 0]\n[1, 0]\n[0, 1]\n[1, 0]\n[1, 0]\n[1, 0]\n[1, 0]\n[1, 0]\n[1, 0]\n[1, 0]]", fillcolor="#e58139"] ;
152 -> 154 ;
155 [label="x[24] <= 0.13\ngini = 0.09\nsamples = 11\nvalue = [[23, 0]\n[23, 0]\n[23, 0]\n[23, 0]\n[23, 0]\n[23, 0]\n[23, 0]\n[21, 2]\n[23, 0]\n[23, 0]\n[19, 4]\n[12, 11]\n[20, 3]\n[22, 1]\n[23, 0]\n[21, 2]]", fillcolor="#f9e4d5"] ;
77 -> 155 ;
156 [label="x[0] <= 0.06\ngini = 0.1\nsamples = 5\nvalue = [[10, 0]\n[10, 0]\n[10, 0]\n[10, 0]\n[10, 0]\n[10, 0]\n[10, 0]\n[8, 2]\n[10, 0]\n[10, 0]\n[8, 2]\n[10, 0]\n[7, 3]\n[9, 1]\n[10, 0]\n[8, 2]]", fillcolor="#fceee5"] ;
155 -> 156 ;
157 [label="x[4] <= 0.04\ngini = 0.09\nsamples = 4\nvalue = [[7, 0]\n[7, 0]\n[7, 0]\n[7, 0]\n[7, 0]\n[7, 0]\n[7, 0]\n[5, 2]\n[7, 0]\n[7, 0]\n[5, 2]\n[7, 0]\n[7, 0]\n[6, 1]\n[7, 0]\n[5, 2]]", fillcolor="#fae8db"] ;
156 -> 157 ;
158 [label="gini = 0.0\nsamples = 1\nvalue = [[2, 0]\n[2, 0]\n[2, 0]\n[2, 0]\n[2, 0]\n[2, 0]\n[2, 0]\n[0, 2]\n[2, 0]\n[2, 0]\n[2, 0]\n[2, 0]\n[2, 0]\n[2, 0]\n[2, 0]\n[2, 0]]", fillcolor="#e58139"] ;
157 -> 158 ;
159 [label="x[12] <= 0.01\ngini = 0.08\nsamples = 3\nvalue = [[5, 0]\n[5, 0]\n[5, 0]\n[5, 0]\n[5, 0]\n[5, 0]\n[5, 0]\n[5, 0]\n[5, 0]\n[5, 0]\n[3, 2]\n[5, 0]\n[5, 0]\n[4, 1]\n[5, 0]\n[3, 2]]", fillcolor="#f8dbc6"] ;
157 -> 159 ;
160 [label="x[104] <= 0.28\ngini = 0.06\nsamples = 2\nvalue = [[3, 0]\n[3, 0]\n[3, 0]\n[3, 0]\n[3, 0]\n[3, 0]\n[3, 0]\n[3, 0]\n[3, 0]\n[3, 0]\n[1, 2]\n[3, 0]\n[3, 0]\n[2, 1]\n[3, 0]\n[3, 0]]", fillcolor="#f2bf9b"] ;
159 -> 160 ;
161 [label="gini = 0.0\nsamples = 1\nvalue = [[2, 0]\n[2, 0]\n[2, 0]\n[2, 0]\n[2, 0]\n[2, 0]\n[2, 0]\n[2, 0]\n[2, 0]\n[2, 0]\n[0, 2]\n[2, 0]\n[2, 0]\n[2, 0]\n[2, 0]\n[2, 0]]", fillcolor="#e58139"] ;
160 -> 161 ;
162 [label="gini = 0.0\nsamples = 1\nvalue = [[1, 0]\n[1, 0]\n[1, 0]\n[1, 0]\n[1, 0]\n[1, 0]\n[1, 0]\n[1, 0]\n[1, 0]\n[1, 0]\n[1, 0]\n[1, 0]\n[1, 0]\n[0, 1]\n[1, 0]\n[1, 0]]", fillcolor="#e58139"] ;
160 -> 162 ;
163 [label="gini = 0.0\nsamples = 1\nvalue = [[2, 0]\n[2, 0]\n[2, 0]\n[2, 0]\n[2, 0]\n[2, 0]\n[2, 0]\n[2, 0]\n[2, 0]\n[2, 0]\n[2, 0]\n[2, 0]\n[2, 0]\n[2, 0]\n[2, 0]\n[0, 2]]", fillcolor="#e58139"] ;
159 -> 163 ;
164 [label="gini = 0.0\nsamples = 1\nvalue = [[3, 0]\n[3, 0]\n[3, 0]\n[3, 0]\n[3, 0]\n[3, 0]\n[3, 0]\n[3, 0]\n[3, 0]\n[3, 0]\n[3, 0]\n[3, 0]\n[0, 3]\n[3, 0]\n[3, 0]\n[3, 0]]", fillcolor="#e58139"] ;
156 -> 164 ;
165 [label="x[8] <= 0.01\ngini = 0.03\nsamples = 6\nvalue = [[13, 0]\n[13, 0]\n[13, 0]\n[13, 0]\n[13, 0]\n[13, 0]\n[13, 0]\n[13, 0]\n[13, 0]\n[13, 0]\n[11, 2]\n[2, 11]\n[13, 0]\n[13, 0]\n[13, 0]\n[13, 0]]", fillcolor="#eda672"] ;
155 -> 165 ;
166 [label="gini = 0.0\nsamples = 1\nvalue = [[2, 0]\n[2, 0]\n[2, 0]\n[2, 0]\n[2, 0]\n[2, 0]\n[2, 0]\n[2, 0]\n[2, 0]\n[2, 0]\n[0, 2]\n[2, 0]\n[2, 0]\n[2, 0]\n[2, 0]\n[2, 0]]", fillcolor="#e58139"] ;
165 -> 166 ;
167 [label="gini = 0.0\nsamples = 5\nvalue = [[11, 0]\n[11, 0]\n[11, 0]\n[11, 0]\n[11, 0]\n[11, 0]\n[11, 0]\n[11, 0]\n[11, 0]\n[11, 0]\n[11, 0]\n[0, 11]\n[11, 0]\n[11, 0]\n[11, 0]\n[11, 0]]", fillcolor="#e58139"] ;
165 -> 167 ;
168 [label="x[23] <= 0.04\ngini = 0.08\nsamples = 13\nvalue = [[20, 0]\n[20, 0]\n[20, 0]\n[15, 5]\n[20, 0]\n[20, 0]\n[20, 0]\n[20, 0]\n[9, 11]\n[19, 1]\n[18, 2]\n[20, 0]\n[20, 0]\n[20, 0]\n[19, 1]\n[20, 0]]", fillcolor="#f7d8c2"] ;
76 -> 168 ;
169 [label="x[28] <= 0.05\ngini = 0.05\nsamples = 9\nvalue = [[14, 0]\n[14, 0]\n[14, 0]\n[14, 0]\n[14, 0]\n[14, 0]\n[14, 0]\n[14, 0]\n[3, 11]\n[13, 1]\n[13, 1]\n[14, 0]\n[14, 0]\n[14, 0]\n[13, 1]\n[14, 0]]", fillcolor="#f0b58a"] ;
168 -> 169 ;
170 [label="x[26] <= 0.02\ngini = 0.06\nsamples = 2\nvalue = [[2, 0]\n[2, 0]\n[2, 0]\n[2, 0]\n[2, 0]\n[2, 0]\n[2, 0]\n[2, 0]\n[2, 0]\n[2, 0]\n[1, 1]\n[2, 0]\n[2, 0]\n[2, 0]\n[1, 1]\n[2, 0]]", fillcolor="#f3c7a7"] ;
169 -> 170 ;
171 [label="gini = 0.0\nsamples = 1\nvalue = [[1, 0]\n[1, 0]\n[1, 0]\n[1, 0]\n[1, 0]\n[1, 0]\n[1, 0]\n[1, 0]\n[1, 0]\n[1, 0]\n[1, 0]\n[1, 0]\n[1, 0]\n[1, 0]\n[0, 1]\n[1, 0]]", fillcolor="#e58139"] ;
170 -> 171 ;
172 [label="gini = 0.0\nsamples = 1\nvalue = [[1, 0]\n[1, 0]\n[1, 0]\n[1, 0]\n[1, 0]\n[1, 0]\n[1, 0]\n[1, 0]\n[1, 0]\n[1, 0]\n[0, 1]\n[1, 0]\n[1, 0]\n[1, 0]\n[1, 0]\n[1, 0]]", fillcolor="#e58139"] ;
170 -> 172 ;
173 [label="x[55] <= 0.03\ngini = 0.02\nsamples = 7\nvalue = [[12, 0]\n[12, 0]\n[12, 0]\n[12, 0]\n[12, 0]\n[12, 0]\n[12, 0]\n[12, 0]\n[1, 11]\n[11, 1]\n[12, 0]\n[12, 0]\n[12, 0]\n[12, 0]\n[12, 0]\n[12, 0]]", fillcolor="#e9965b"] ;
169 -> 173 ;
174 [label="gini = 0.0\nsamples = 1\nvalue = [[1, 0]\n[1, 0]\n[1, 0]\n[1, 0]\n[1, 0]\n[1, 0]\n[1, 0]\n[1, 0]\n[1, 0]\n[0, 1]\n[1, 0]\n[1, 0]\n[1, 0]\n[1, 0]\n[1, 0]\n[1, 0]]", fillcolor="#e58139"] ;
173 -> 174 ;
175 [label="gini = 0.0\nsamples = 6\nvalue = [[11, 0]\n[11, 0]\n[11, 0]\n[11, 0]\n[11, 0]\n[11, 0]\n[11, 0]\n[11, 0]\n[0, 11]\n[11, 0]\n[11, 0]\n[11, 0]\n[11, 0]\n[11, 0]\n[11, 0]\n[11, 0]]", fillcolor="#e58139"] ;
173 -> 175 ;
176 [label="x[39] <= 0.01\ngini = 0.03\nsamples = 4\nvalue = [[6, 0]\n[6, 0]\n[6, 0]\n[1, 5]\n[6, 0]\n[6, 0]\n[6, 0]\n[6, 0]\n[6, 0]\n[6, 0]\n[5, 1]\n[6, 0]\n[6, 0]\n[6, 0]\n[6, 0]\n[6, 0]]", fillcolor="#eda876"] ;
168 -> 176 ;
177 [label="gini = 0.0\nsamples = 3\nvalue = [[5, 0]\n[5, 0]\n[5, 0]\n[0, 5]\n[5, 0]\n[5, 0]\n[5, 0]\n[5, 0]\n[5, 0]\n[5, 0]\n[5, 0]\n[5, 0]\n[5, 0]\n[5, 0]\n[5, 0]\n[5, 0]]", fillcolor="#e58139"] ;
176 -> 177 ;
178 [label="gini = 0.0\nsamples = 1\nvalue = [[1, 0]\n[1, 0]\n[1, 0]\n[1, 0]\n[1, 0]\n[1, 0]\n[1, 0]\n[1, 0]\n[1, 0]\n[1, 0]\n[0, 1]\n[1, 0]\n[1, 0]\n[1, 0]\n[1, 0]\n[1, 0]]", fillcolor="#e58139"] ;
176 -> 178 ;
179 [label="x[65] <= 0.06\ngini = 0.05\nsamples = 9\nvalue = [[18, 0]\n[18, 0]\n[18, 0]\n[18, 0]\n[18, 0]\n[18, 0]\n[18, 0]\n[18, 0]\n[18, 0]\n[18, 0]\n[17, 1]\n[4, 14]\n[18, 0]\n[18, 0]\n[18, 0]\n[15, 3]]", fillcolor="#f0b489"] ;
37 -> 179 ;
180 [label="x[19] <= 0.01\ngini = 0.02\nsamples = 8\nvalue = [[15, 0]\n[15, 0]\n[15, 0]\n[15, 0]\n[15, 0]\n[15, 0]\n[15, 0]\n[15, 0]\n[15, 0]\n[15, 0]\n[14, 1]\n[1, 14]\n[15, 0]\n[15, 0]\n[15, 0]\n[15, 0]]", fillcolor="#e99254"] ;
179 -> 180 ;
181 [label="gini = 0.0\nsamples = 1\nvalue = [[1, 0]\n[1, 0]\n[1, 0]\n[1, 0]\n[1, 0]\n[1, 0]\n[1, 0]\n[1, 0]\n[1, 0]\n[1, 0]\n[0, 1]\n[1, 0]\n[1, 0]\n[1, 0]\n[1, 0]\n[1, 0]]", fillcolor="#e58139"] ;
180 -> 181 ;
182 [label="gini = 0.0\nsamples = 7\nvalue = [[14, 0]\n[14, 0]\n[14, 0]\n[14, 0]\n[14, 0]\n[14, 0]\n[14, 0]\n[14, 0]\n[14, 0]\n[14, 0]\n[14, 0]\n[0, 14]\n[14, 0]\n[14, 0]\n[14, 0]\n[14, 0]]", fillcolor="#e58139"] ;
180 -> 182 ;
183 [label="gini = 0.0\nsamples = 1\nvalue = [[3, 0]\n[3, 0]\n[3, 0]\n[3, 0]\n[3, 0]\n[3, 0]\n[3, 0]\n[3, 0]\n[3, 0]\n[3, 0]\n[3, 0]\n[3, 0]\n[3, 0]\n[3, 0]\n[3, 0]\n[0, 3]]", fillcolor="#e58139"] ;
179 -> 183 ;
184 [label="x[92] <= 0.03\ngini = 0.09\nsamples = 9\nvalue = [[18, 0]\n[13, 5]\n[18, 0]\n[17, 1]\n[18, 0]\n[18, 0]\n[18, 0]\n[18, 0]\n[17, 1]\n[13, 5]\n[18, 0]\n[18, 0]\n[18, 0]\n[18, 0]\n[12, 6]\n[18, 0]]", fillcolor="#fae7da"] ;
36 -> 184 ;
185 [label="x[97] <= 0.08\ngini = 0.07\nsamples = 5\nvalue = [[11, 0]\n[6, 5]\n[11, 0]\n[11, 0]\n[11, 0]\n[11, 0]\n[11, 0]\n[11, 0]\n[10, 1]\n[6, 5]\n[11, 0]\n[11, 0]\n[11, 0]\n[11, 0]\n[11, 0]\n[11, 0]]", fillcolor="#f6d2b9"] ;
184 -> 185 ;
186 [label="gini = 0.0\nsamples = 1\nvalue = [[5, 0]\n[0, 5]\n[5, 0]\n[5, 0]\n[5, 0]\n[5, 0]\n[5, 0]\n[5, 0]\n[5, 0]\n[5, 0]\n[5, 0]\n[5, 0]\n[5, 0]\n[5, 0]\n[5, 0]\n[5, 0]]", fillcolor="#e58139"] ;
185 -> 186 ;
187 [label="x[87] <= 0.0\ngini = 0.03\nsamples = 4\nvalue = [[6, 0]\n[6, 0]\n[6, 0]\n[6, 0]\n[6, 0]\n[6, 0]\n[6, 0]\n[6, 0]\n[5, 1]\n[1, 5]\n[6, 0]\n[6, 0]\n[6, 0]\n[6, 0]\n[6, 0]\n[6, 0]]", fillcolor="#eda876"] ;
185 -> 187 ;
188 [label="gini = 0.0\nsamples = 1\nvalue = [[1, 0]\n[1, 0]\n[1, 0]\n[1, 0]\n[1, 0]\n[1, 0]\n[1, 0]\n[1, 0]\n[0, 1]\n[1, 0]\n[1, 0]\n[1, 0]\n[1, 0]\n[1, 0]\n[1, 0]\n[1, 0]]", fillcolor="#e58139"] ;
187 -> 188 ;
189 [label="gini = 0.0\nsamples = 3\nvalue = [[5, 0]\n[5, 0]\n[5, 0]\n[5, 0]\n[5, 0]\n[5, 0]\n[5, 0]\n[5, 0]\n[5, 0]\n[0, 5]\n[5, 0]\n[5, 0]\n[5, 0]\n[5, 0]\n[5, 0]\n[5, 0]]", fillcolor="#e58139"] ;
187 -> 189 ;
190 [label="x[95] <= 0.01\ngini = 0.03\nsamples = 4\nvalue = [[7, 0]\n[7, 0]\n[7, 0]\n[6, 1]\n[7, 0]\n[7, 0]\n[7, 0]\n[7, 0]\n[7, 0]\n[7, 0]\n[7, 0]\n[7, 0]\n[7, 0]\n[7, 0]\n[1, 6]\n[7, 0]]", fillcolor="#eca36f"] ;
184 -> 190 ;
191 [label="gini = 0.0\nsamples = 1\nvalue = [[1, 0]\n[1, 0]\n[1, 0]\n[0, 1]\n[1, 0]\n[1, 0]\n[1, 0]\n[1, 0]\n[1, 0]\n[1, 0]\n[1, 0]\n[1, 0]\n[1, 0]\n[1, 0]\n[1, 0]\n[1, 0]]", fillcolor="#e58139"] ;
190 -> 191 ;
192 [label="gini = 0.0\nsamples = 3\nvalue = [[6, 0]\n[6, 0]\n[6, 0]\n[6, 0]\n[6, 0]\n[6, 0]\n[6, 0]\n[6, 0]\n[6, 0]\n[6, 0]\n[6, 0]\n[6, 0]\n[6, 0]\n[6, 0]\n[0, 6]\n[6, 0]]", fillcolor="#e58139"] ;
190 -> 192 ;
193 [label="x[43] <= 0.03\ngini = 0.1\nsamples = 192\nvalue = [[307, 2]\n[299, 10]\n[306, 3]\n[294, 15]\n[309, 0]\n[307, 2]\n[309, 0]\n[302, 7]\n[274, 35]\n[275, 34]\n[267, 42]\n[195, 114]\n[307, 2]\n[302, 7]\n[302, 7]\n[280, 29]]", fillcolor="#fcf2eb"] ;
35 -> 193 ;
194 [label="x[97] <= 0.05\ngini = 0.1\nsamples = 118\nvalue = [[183, 0]\n[179, 4]\n[183, 0]\n[172, 11]\n[183, 0]\n[182, 1]\n[183, 0]\n[179, 4]\n[152, 31]\n[157, 26]\n[155, 28]\n[130, 53]\n[181, 2]\n[177, 6]\n[181, 2]\n[168, 15]]", fillcolor="#fdf6f0"] ;
193 -> 194 ;
195 [label="x[27] <= 0.01\ngini = 0.07\nsamples = 6\nvalue = [[14, 0]\n[14, 0]\n[14, 0]\n[14, 0]\n[14, 0]\n[14, 0]\n[14, 0]\n[14, 0]\n[14, 0]\n[8, 6]\n[7, 7]\n[14, 0]\n[14, 0]\n[14, 0]\n[14, 0]\n[13, 1]]", fillcolor="#f5d0b5"] ;
194 -> 195 ;
196 [label="x[57] <= 0.06\ngini = 0.03\nsamples = 4\nvalue = [[8, 0]\n[8, 0]\n[8, 0]\n[8, 0]\n[8, 0]\n[8, 0]\n[8, 0]\n[8, 0]\n[8, 0]\n[8, 0]\n[1, 7]\n[8, 0]\n[8, 0]\n[8, 0]\n[8, 0]\n[7, 1]]", fillcolor="#eba069"] ;
195 -> 196 ;
197 [label="gini = 0.0\nsamples = 3\nvalue = [[7, 0]\n[7, 0]\n[7, 0]\n[7, 0]\n[7, 0]\n[7, 0]\n[7, 0]\n[7, 0]\n[7, 0]\n[7, 0]\n[0, 7]\n[7, 0]\n[7, 0]\n[7, 0]\n[7, 0]\n[7, 0]]", fillcolor="#e58139"] ;
196 -> 197 ;
198 [label="gini = 0.0\nsamples = 1\nvalue = [[1, 0]\n[1, 0]\n[1, 0]\n[1, 0]\n[1, 0]\n[1, 0]\n[1, 0]\n[1, 0]\n[1, 0]\n[1, 0]\n[1, 0]\n[1, 0]\n[1, 0]\n[1, 0]\n[1, 0]\n[0, 1]]", fillcolor="#e58139"] ;
196 -> 198 ;
199 [label="gini = 0.0\nsamples = 2\nvalue = [[6, 0]\n[6, 0]\n[6, 0]\n[6, 0]\n[6, 0]\n[6, 0]\n[6, 0]\n[6, 0]\n[6, 0]\n[0, 6]\n[6, 0]\n[6, 0]\n[6, 0]\n[6, 0]\n[6, 0]\n[6, 0]]", fillcolor="#e58139"] ;
195 -> 199 ;
200 [label="x[102] <= 0.33\ngini = 0.1\nsamples = 112\nvalue = [[169, 0]\n[165, 4]\n[169, 0]\n[158, 11]\n[169, 0]\n[168, 1]\n[169, 0]\n[165, 4]\n[138, 31]\n[149, 20]\n[148, 21]\n[116, 53]\n[167, 2]\n[163, 6]\n[167, 2]\n[155, 14]]", fillcolor="#fdf5ef"] ;
194 -> 200 ;
201 [label="x[25] <= 0.02\ngini = 0.09\nsamples = 40\nvalue = [[68, 0]\n[67, 1]\n[68, 0]\n[63, 5]\n[68, 0]\n[68, 0]\n[68, 0]\n[68, 0]\n[61, 7]\n[63, 5]\n[53, 15]\n[37, 31]\n[68, 0]\n[65, 3]\n[68, 0]\n[67, 1]]", fillcolor="#fae6d8"] ;
200 -> 201 ;
202 [label="x[60] <= 0.03\ngini = 0.05\nsamples = 17\nvalue = [[33, 0]\n[32, 1]\n[33, 0]\n[32, 1]\n[33, 0]\n[33, 0]\n[33, 0]\n[33, 0]\n[29, 4]\n[33, 0]\n[31, 2]\n[8, 25]\n[33, 0]\n[33, 0]\n[33, 0]\n[33, 0]]", fillcolor="#f1ba92"] ;
201 -> 202 ;
203 [label="x[16] <= 0.05\ngini = 0.04\nsamples = 14\nvalue = [[29, 0]\n[28, 1]\n[29, 0]\n[29, 0]\n[29, 0]\n[29, 0]\n[29, 0]\n[29, 0]\n[25, 4]\n[29, 0]\n[29, 0]\n[5, 24]\n[29, 0]\n[29, 0]\n[29, 0]\n[29, 0]]", fillcolor="#eeaa7a"] ;
202 -> 203 ;
204 [label="gini = 0.0\nsamples = 11\nvalue = [[24, 0]\n[24, 0]\n[24, 0]\n[24, 0]\n[24, 0]\n[24, 0]\n[24, 0]\n[24, 0]\n[24, 0]\n[24, 0]\n[24, 0]\n[0, 24]\n[24, 0]\n[24, 0]\n[24, 0]\n[24, 0]]", fillcolor="#e58139"] ;
203 -> 204 ;
205 [label="x[88] <= 0.08\ngini = 0.04\nsamples = 3\nvalue = [[5, 0]\n[4, 1]\n[5, 0]\n[5, 0]\n[5, 0]\n[5, 0]\n[5, 0]\n[5, 0]\n[1, 4]\n[5, 0]\n[5, 0]\n[5, 0]\n[5, 0]\n[5, 0]\n[5, 0]\n[5, 0]]", fillcolor="#eeae80"] ;
203 -> 205 ;
206 [label="gini = 0.0\nsamples = 2\nvalue = [[4, 0]\n[4, 0]\n[4, 0]\n[4, 0]\n[4, 0]\n[4, 0]\n[4, 0]\n[4, 0]\n[0, 4]\n[4, 0]\n[4, 0]\n[4, 0]\n[4, 0]\n[4, 0]\n[4, 0]\n[4, 0]]", fillcolor="#e58139"] ;
205 -> 206 ;
207 [label="gini = 0.0\nsamples = 1\nvalue = [[1, 0]\n[0, 1]\n[1, 0]\n[1, 0]\n[1, 0]\n[1, 0]\n[1, 0]\n[1, 0]\n[1, 0]\n[1, 0]\n[1, 0]\n[1, 0]\n[1, 0]\n[1, 0]\n[1, 0]\n[1, 0]]", fillcolor="#e58139"] ;
205 -> 207 ;
208 [label="x[52] <= 0.01\ngini = 0.08\nsamples = 3\nvalue = [[4, 0]\n[4, 0]\n[4, 0]\n[3, 1]\n[4, 0]\n[4, 0]\n[4, 0]\n[4, 0]\n[4, 0]\n[4, 0]\n[2, 2]\n[3, 1]\n[4, 0]\n[4, 0]\n[4, 0]\n[4, 0]]", fillcolor="#f7d9c3"] ;
202 -> 208 ;
209 [label="gini = 0.0\nsamples = 1\nvalue = [[2, 0]\n[2, 0]\n[2, 0]\n[2, 0]\n[2, 0]\n[2, 0]\n[2, 0]\n[2, 0]\n[2, 0]\n[2, 0]\n[0, 2]\n[2, 0]\n[2, 0]\n[2, 0]\n[2, 0]\n[2, 0]]", fillcolor="#e58139"] ;
208 -> 209 ;
210 [label="x[53] <= 0.08\ngini = 0.06\nsamples = 2\nvalue = [[2, 0]\n[2, 0]\n[2, 0]\n[1, 1]\n[2, 0]\n[2, 0]\n[2, 0]\n[2, 0]\n[2, 0]\n[2, 0]\n[2, 0]\n[1, 1]\n[2, 0]\n[2, 0]\n[2, 0]\n[2, 0]]", fillcolor="#f3c7a7"] ;
208 -> 210 ;
211 [label="gini = 0.0\nsamples = 1\nvalue = [[1, 0]\n[1, 0]\n[1, 0]\n[0, 1]\n[1, 0]\n[1, 0]\n[1, 0]\n[1, 0]\n[1, 0]\n[1, 0]\n[1, 0]\n[1, 0]\n[1, 0]\n[1, 0]\n[1, 0]\n[1, 0]]", fillcolor="#e58139"] ;
210 -> 211 ;
212 [label="gini = 0.0\nsamples = 1\nvalue = [[1, 0]\n[1, 0]\n[1, 0]\n[1, 0]\n[1, 0]\n[1, 0]\n[1, 0]\n[1, 0]\n[1, 0]\n[1, 0]\n[1, 0]\n[0, 1]\n[1, 0]\n[1, 0]\n[1, 0]\n[1, 0]]", fillcolor="#e58139"] ;
210 -> 212 ;
213 [label="x[40] <= 0.04\ngini = 0.1\nsamples = 23\nvalue = [[35, 0]\n[35, 0]\n[35, 0]\n[31, 4]\n[35, 0]\n[35, 0]\n[35, 0]\n[35, 0]\n[32, 3]\n[30, 5]\n[22, 13]\n[29, 6]\n[35, 0]\n[32, 3]\n[35, 0]\n[34, 1]]", fillcolor="#fcefe6"] ;
201 -> 213 ;
214 [label="x[64] <= 0.02\ngini = 0.1\nsamples = 12\nvalue = [[15, 0]\n[15, 0]\n[15, 0]\n[12, 3]\n[15, 0]\n[15, 0]\n[15, 0]\n[15, 0]\n[13, 2]\n[13, 2]\n[15, 0]\n[10, 5]\n[15, 0]\n[13, 2]\n[15, 0]\n[14, 1]]", fillcolor="#fcf0e7"] ;
213 -> 214 ;
215 [label="x[65] <= 0.01\ngini = 0.03\nsamples = 5\nvalue = [[6, 0]\n[6, 0]\n[6, 0]\n[6, 0]\n[6, 0]\n[6, 0]\n[6, 0]\n[6, 0]\n[6, 0]\n[5, 1]\n[6, 0]\n[1, 5]\n[6, 0]\n[6, 0]\n[6, 0]\n[6, 0]]", fillcolor="#eda876"] ;
214 -> 215 ;
216 [label="gini = 0.0\nsamples = 1\nvalue = [[1, 0]\n[1, 0]\n[1, 0]\n[1, 0]\n[1, 0]\n[1, 0]\n[1, 0]\n[1, 0]\n[1, 0]\n[0, 1]\n[1, 0]\n[1, 0]\n[1, 0]\n[1, 0]\n[1, 0]\n[1, 0]]", fillcolor="#e58139"] ;
215 -> 216 ;
217 [label="gini = 0.0\nsamples = 4\nvalue = [[5, 0]\n[5, 0]\n[5, 0]\n[5, 0]\n[5, 0]\n[5, 0]\n[5, 0]\n[5, 0]\n[5, 0]\n[5, 0]\n[5, 0]\n[0, 5]\n[5, 0]\n[5, 0]\n[5, 0]\n[5, 0]]", fillcolor="#e58139"] ;
215 -> 217 ;
218 [label="x[17] <= 0.01\ngini = 0.1\nsamples = 7\nvalue = [[9, 0]\n[9, 0]\n[9, 0]\n[6, 3]\n[9, 0]\n[9, 0]\n[9, 0]\n[9, 0]\n[7, 2]\n[8, 1]\n[9, 0]\n[9, 0]\n[9, 0]\n[7, 2]\n[9, 0]\n[8, 1]]", fillcolor="#fbece2"] ;
214 -> 218 ;
219 [label="x[101] <= 0.12\ngini = 0.08\nsamples = 3\nvalue = [[5, 0]\n[5, 0]\n[5, 0]\n[5, 0]\n[5, 0]\n[5, 0]\n[5, 0]\n[5, 0]\n[3, 2]\n[4, 1]\n[5, 0]\n[5, 0]\n[5, 0]\n[3, 2]\n[5, 0]\n[5, 0]]", fillcolor="#f8dbc6"] ;
218 -> 219 ;
220 [label="gini = 0.0\nsamples = 1\nvalue = [[2, 0]\n[2, 0]\n[2, 0]\n[2, 0]\n[2, 0]\n[2, 0]\n[2, 0]\n[2, 0]\n[2, 0]\n[2, 0]\n[2, 0]\n[2, 0]\n[2, 0]\n[0, 2]\n[2, 0]\n[2, 0]]", fillcolor="#e58139"] ;
219 -> 220 ;
221 [label="x[104] <= 0.29\ngini = 0.06\nsamples = 2\nvalue = [[3, 0]\n[3, 0]\n[3, 0]\n[3, 0]\n[3, 0]\n[3, 0]\n[3, 0]\n[3, 0]\n[1, 2]\n[2, 1]\n[3, 0]\n[3, 0]\n[3, 0]\n[3, 0]\n[3, 0]\n[3, 0]]", fillcolor="#f2bf9b"] ;
219 -> 221 ;
222 [label="gini = 0.0\nsamples = 1\nvalue = [[1, 0]\n[1, 0]\n[1, 0]\n[1, 0]\n[1, 0]\n[1, 0]\n[1, 0]\n[1, 0]\n[1, 0]\n[0, 1]\n[1, 0]\n[1, 0]\n[1, 0]\n[1, 0]\n[1, 0]\n[1, 0]]", fillcolor="#e58139"] ;
221 -> 222 ;
223 [label="gini = 0.0\nsamples = 1\nvalue = [[2, 0]\n[2, 0]\n[2, 0]\n[2, 0]\n[2, 0]\n[2, 0]\n[2, 0]\n[2, 0]\n[0, 2]\n[2, 0]\n[2, 0]\n[2, 0]\n[2, 0]\n[2, 0]\n[2, 0]\n[2, 0]]", fillcolor="#e58139"] ;
221 -> 223 ;
224 [label="x[103] <= 0.08\ngini = 0.05\nsamples = 4\nvalue = [[4, 0]\n[4, 0]\n[4, 0]\n[1, 3]\n[4, 0]\n[4, 0]\n[4, 0]\n[4, 0]\n[4, 0]\n[4, 0]\n[4, 0]\n[4, 0]\n[4, 0]\n[4, 0]\n[4, 0]\n[3, 1]]", fillcolor="#f0b68c"] ;
218 -> 224 ;
225 [label="gini = 0.0\nsamples = 3\nvalue = [[3, 0]\n[3, 0]\n[3, 0]\n[0, 3]\n[3, 0]\n[3, 0]\n[3, 0]\n[3, 0]\n[3, 0]\n[3, 0]\n[3, 0]\n[3, 0]\n[3, 0]\n[3, 0]\n[3, 0]\n[3, 0]]", fillcolor="#e58139"] ;
224 -> 225 ;
226 [label="gini = 0.0\nsamples = 1\nvalue = [[1, 0]\n[1, 0]\n[1, 0]\n[1, 0]\n[1, 0]\n[1, 0]\n[1, 0]\n[1, 0]\n[1, 0]\n[1, 0]\n[1, 0]\n[1, 0]\n[1, 0]\n[1, 0]\n[1, 0]\n[0, 1]]", fillcolor="#e58139"] ;
224 -> 226 ;
227 [label="x[54] <= 0.0\ngini = 0.07\nsamples = 11\nvalue = [[20, 0]\n[20, 0]\n[20, 0]\n[19, 1]\n[20, 0]\n[20, 0]\n[20, 0]\n[20, 0]\n[19, 1]\n[17, 3]\n[7, 13]\n[19, 1]\n[20, 0]\n[19, 1]\n[20, 0]\n[20, 0]]", fillcolor="#f5cdb1"] ;
213 -> 227 ;
228 [label="x[38] <= 0.02\ngini = 0.05\nsamples = 2\nvalue = [[4, 0]\n[4, 0]\n[4, 0]\n[4, 0]\n[4, 0]\n[4, 0]\n[4, 0]\n[4, 0]\n[3, 1]\n[1, 3]\n[4, 0]\n[4, 0]\n[4, 0]\n[4, 0]\n[4, 0]\n[4, 0]]", fillcolor="#f0b68c"] ;
227 -> 228 ;
229 [label="gini = 0.0\nsamples = 1\nvalue = [[3, 0]\n[3, 0]\n[3, 0]\n[3, 0]\n[3, 0]\n[3, 0]\n[3, 0]\n[3, 0]\n[3, 0]\n[0, 3]\n[3, 0]\n[3, 0]\n[3, 0]\n[3, 0]\n[3, 0]\n[3, 0]]", fillcolor="#e58139"] ;
228 -> 229 ;
230 [label="gini = 0.0\nsamples = 1\nvalue = [[1, 0]\n[1, 0]\n[1, 0]\n[1, 0]\n[1, 0]\n[1, 0]\n[1, 0]\n[1, 0]\n[0, 1]\n[1, 0]\n[1, 0]\n[1, 0]\n[1, 0]\n[1, 0]\n[1, 0]\n[1, 0]]", fillcolor="#e58139"] ;
228 -> 230 ;
231 [label="x[94] <= 0.07\ngini = 0.04\nsamples = 9\nvalue = [[16, 0]\n[16, 0]\n[16, 0]\n[15, 1]\n[16, 0]\n[16, 0]\n[16, 0]\n[16, 0]\n[16, 0]\n[16, 0]\n[3, 13]\n[15, 1]\n[16, 0]\n[15, 1]\n[16, 0]\n[16, 0]]", fillcolor="#eeaf81"] ;
227 -> 231 ;
232 [label="x[72] <= 0.02\ngini = 0.06\nsamples = 2\nvalue = [[2, 0]\n[2, 0]\n[2, 0]\n[1, 1]\n[2, 0]\n[2, 0]\n[2, 0]\n[2, 0]\n[2, 0]\n[2, 0]\n[2, 0]\n[2, 0]\n[2, 0]\n[1, 1]\n[2, 0]\n[2, 0]]", fillcolor="#f3c7a7"] ;
231 -> 232 ;
233 [label="gini = 0.0\nsamples = 1\nvalue = [[1, 0]\n[1, 0]\n[1, 0]\n[0, 1]\n[1, 0]\n[1, 0]\n[1, 0]\n[1, 0]\n[1, 0]\n[1, 0]\n[1, 0]\n[1, 0]\n[1, 0]\n[1, 0]\n[1, 0]\n[1, 0]]", fillcolor="#e58139"] ;
232 -> 233 ;
234 [label="gini = 0.0\nsamples = 1\nvalue = [[1, 0]\n[1, 0]\n[1, 0]\n[1, 0]\n[1, 0]\n[1, 0]\n[1, 0]\n[1, 0]\n[1, 0]\n[1, 0]\n[1, 0]\n[1, 0]\n[1, 0]\n[0, 1]\n[1, 0]\n[1, 0]]", fillcolor="#e58139"] ;
232 -> 234 ;
235 [label="x[28] <= 0.1\ngini = 0.02\nsamples = 7\nvalue = [[14, 0]\n[14, 0]\n[14, 0]\n[14, 0]\n[14, 0]\n[14, 0]\n[14, 0]\n[14, 0]\n[14, 0]\n[14, 0]\n[1, 13]\n[13, 1]\n[14, 0]\n[14, 0]\n[14, 0]\n[14, 0]]", fillcolor="#e99456"] ;
231 -> 235 ;
236 [label="gini = 0.0\nsamples = 6\nvalue = [[13, 0]\n[13, 0]\n[13, 0]\n[13, 0]\n[13, 0]\n[13, 0]\n[13, 0]\n[13, 0]\n[13, 0]\n[13, 0]\n[0, 13]\n[13, 0]\n[13, 0]\n[13, 0]\n[13, 0]\n[13, 0]]", fillcolor="#e58139"] ;
235 -> 236 ;
237 [label="gini = 0.0\nsamples = 1\nvalue = [[1, 0]\n[1, 0]\n[1, 0]\n[1, 0]\n[1, 0]\n[1, 0]\n[1, 0]\n[1, 0]\n[1, 0]\n[1, 0]\n[1, 0]\n[0, 1]\n[1, 0]\n[1, 0]\n[1, 0]\n[1, 0]]", fillcolor="#e58139"] ;
235 -> 237 ;
238 [label="x[18] <= 0.09\ngini = 0.11\nsamples = 72\nvalue = [[101, 0]\n[98, 3]\n[101, 0]\n[95, 6]\n[101, 0]\n[100, 1]\n[101, 0]\n[97, 4]\n[77, 24]\n[86, 15]\n[95, 6]\n[79, 22]\n[99, 2]\n[98, 3]\n[99, 2]\n[88, 13]]", fillcolor="#fdf8f4"] ;
200 -> 238 ;
239 [label="x[44] <= 0.02\ngini = 0.09\nsamples = 22\nvalue = [[31, 0]\n[28, 3]\n[31, 0]\n[31, 0]\n[31, 0]\n[31, 0]\n[31, 0]\n[31, 0]\n[18, 13]\n[21, 10]\n[29, 2]\n[28, 3]\n[31, 0]\n[31, 0]\n[31, 0]\n[31, 0]]", fillcolor="#f9e3d3"] ;
238 -> 239 ;
240 [label="x[4] <= 0.11\ngini = 0.05\nsamples = 9\nvalue = [[14, 0]\n[14, 0]\n[14, 0]\n[14, 0]\n[14, 0]\n[14, 0]\n[14, 0]\n[14, 0]\n[3, 11]\n[13, 1]\n[13, 1]\n[13, 1]\n[14, 0]\n[14, 0]\n[14, 0]\n[14, 0]]", fillcolor="#f0b58a"] ;
239 -> 240 ;
241 [label="x[39] <= 0.01\ngini = 0.02\nsamples = 7\nvalue = [[12, 0]\n[12, 0]\n[12, 0]\n[12, 0]\n[12, 0]\n[12, 0]\n[12, 0]\n[12, 0]\n[1, 11]\n[11, 1]\n[12, 0]\n[12, 0]\n[12, 0]\n[12, 0]\n[12, 0]\n[12, 0]]", fillcolor="#e9965b"] ;
240 -> 241 ;
242 [label="gini = 0.0\nsamples = 1\nvalue = [[1, 0]\n[1, 0]\n[1, 0]\n[1, 0]\n[1, 0]\n[1, 0]\n[1, 0]\n[1, 0]\n[1, 0]\n[0, 1]\n[1, 0]\n[1, 0]\n[1, 0]\n[1, 0]\n[1, 0]\n[1, 0]]", fillcolor="#e58139"] ;
241 -> 242 ;
243 [label="gini = 0.0\nsamples = 6\nvalue = [[11, 0]\n[11, 0]\n[11, 0]\n[11, 0]\n[11, 0]\n[11, 0]\n[11, 0]\n[11, 0]\n[0, 11]\n[11, 0]\n[11, 0]\n[11, 0]\n[11, 0]\n[11, 0]\n[11, 0]\n[11, 0]]", fillcolor="#e58139"] ;
241 -> 243 ;
244 [label="x[84] <= 0.08\ngini = 0.06\nsamples = 2\nvalue = [[2, 0]\n[2, 0]\n[2, 0]\n[2, 0]\n[2, 0]\n[2, 0]\n[2, 0]\n[2, 0]\n[2, 0]\n[2, 0]\n[1, 1]\n[1, 1]\n[2, 0]\n[2, 0]\n[2, 0]\n[2, 0]]", fillcolor="#f3c7a7"] ;
240 -> 244 ;
245 [label="gini = 0.0\nsamples = 1\nvalue = [[1, 0]\n[1, 0]\n[1, 0]\n[1, 0]\n[1, 0]\n[1, 0]\n[1, 0]\n[1, 0]\n[1, 0]\n[1, 0]\n[0, 1]\n[1, 0]\n[1, 0]\n[1, 0]\n[1, 0]\n[1, 0]]", fillcolor="#e58139"] ;
244 -> 245 ;
246 [label="gini = 0.0\nsamples = 1\nvalue = [[1, 0]\n[1, 0]\n[1, 0]\n[1, 0]\n[1, 0]\n[1, 0]\n[1, 0]\n[1, 0]\n[1, 0]\n[1, 0]\n[1, 0]\n[0, 1]\n[1, 0]\n[1, 0]\n[1, 0]\n[1, 0]]", fillcolor="#e58139"] ;
244 -> 246 ;
247 [label="x[13] <= 0.1\ngini = 0.08\nsamples = 13\nvalue = [[17, 0]\n[14, 3]\n[17, 0]\n[17, 0]\n[17, 0]\n[17, 0]\n[17, 0]\n[17, 0]\n[15, 2]\n[8, 9]\n[16, 1]\n[15, 2]\n[17, 0]\n[17, 0]\n[17, 0]\n[17, 0]]", fillcolor="#f8ddca"] ;
239 -> 247 ;
248 [label="x[67] <= 0.05\ngini = 0.04\nsamples = 8\nvalue = [[11, 0]\n[11, 0]\n[11, 0]\n[11, 0]\n[11, 0]\n[11, 0]\n[11, 0]\n[11, 0]\n[9, 2]\n[2, 9]\n[11, 0]\n[11, 0]\n[11, 0]\n[11, 0]\n[11, 0]\n[11, 0]]", fillcolor="#eeab7b"] ;
247 -> 248 ;
249 [label="x[55] <= 0.01\ngini = 0.02\nsamples = 7\nvalue = [[10, 0]\n[10, 0]\n[10, 0]\n[10, 0]\n[10, 0]\n[10, 0]\n[10, 0]\n[10, 0]\n[9, 1]\n[1, 9]\n[10, 0]\n[10, 0]\n[10, 0]\n[10, 0]\n[10, 0]\n[10, 0]]", fillcolor="#ea9a61"] ;
248 -> 249 ;
250 [label="gini = 0.0\nsamples = 1\nvalue = [[1, 0]\n[1, 0]\n[1, 0]\n[1, 0]\n[1, 0]\n[1, 0]\n[1, 0]\n[1, 0]\n[0, 1]\n[1, 0]\n[1, 0]\n[1, 0]\n[1, 0]\n[1, 0]\n[1, 0]\n[1, 0]]", fillcolor="#e58139"] ;
249 -> 250 ;
251 [label="gini = 0.0\nsamples = 6\nvalue = [[9, 0]\n[9, 0]\n[9, 0]\n[9, 0]\n[9, 0]\n[9, 0]\n[9, 0]\n[9, 0]\n[9, 0]\n[0, 9]\n[9, 0]\n[9, 0]\n[9, 0]\n[9, 0]\n[9, 0]\n[9, 0]]", fillcolor="#e58139"] ;
249 -> 251 ;
252 [label="gini = 0.0\nsamples = 1\nvalue = [[1, 0]\n[1, 0]\n[1, 0]\n[1, 0]\n[1, 0]\n[1, 0]\n[1, 0]\n[1, 0]\n[0, 1]\n[1, 0]\n[1, 0]\n[1, 0]\n[1, 0]\n[1, 0]\n[1, 0]\n[1, 0]]", fillcolor="#e58139"] ;
248 -> 252 ;
253 [label="x[75] <= 0.03\ngini = 0.08\nsamples = 5\nvalue = [[6, 0]\n[3, 3]\n[6, 0]\n[6, 0]\n[6, 0]\n[6, 0]\n[6, 0]\n[6, 0]\n[6, 0]\n[6, 0]\n[5, 1]\n[4, 2]\n[6, 0]\n[6, 0]\n[6, 0]\n[6, 0]]", fillcolor="#f7d7c0"] ;
247 -> 253 ;
254 [label="gini = 0.0\nsamples = 2\nvalue = [[3, 0]\n[0, 3]\n[3, 0]\n[3, 0]\n[3, 0]\n[3, 0]\n[3, 0]\n[3, 0]\n[3, 0]\n[3, 0]\n[3, 0]\n[3, 0]\n[3, 0]\n[3, 0]\n[3, 0]\n[3, 0]]", fillcolor="#e58139"] ;
253 -> 254 ;
255 [label="x[79] <= 0.28\ngini = 0.06\nsamples = 3\nvalue = [[3, 0]\n[3, 0]\n[3, 0]\n[3, 0]\n[3, 0]\n[3, 0]\n[3, 0]\n[3, 0]\n[3, 0]\n[3, 0]\n[2, 1]\n[1, 2]\n[3, 0]\n[3, 0]\n[3, 0]\n[3, 0]]", fillcolor="#f2bf9b"] ;
253 -> 255 ;
256 [label="gini = 0.0\nsamples = 1\nvalue = [[1, 0]\n[1, 0]\n[1, 0]\n[1, 0]\n[1, 0]\n[1, 0]\n[1, 0]\n[1, 0]\n[1, 0]\n[1, 0]\n[0, 1]\n[1, 0]\n[1, 0]\n[1, 0]\n[1, 0]\n[1, 0]]", fillcolor="#e58139"] ;
255 -> 256 ;
257 [label="gini = 0.0\nsamples = 2\nvalue = [[2, 0]\n[2, 0]\n[2, 0]\n[2, 0]\n[2, 0]\n[2, 0]\n[2, 0]\n[2, 0]\n[2, 0]\n[2, 0]\n[2, 0]\n[0, 2]\n[2, 0]\n[2, 0]\n[2, 0]\n[2, 0]]", fillcolor="#e58139"] ;
255 -> 257 ;
258 [label="x[50] <= 0.03\ngini = 0.11\nsamples = 50\nvalue = [[70, 0]\n[70, 0]\n[70, 0]\n[64, 6]\n[70, 0]\n[69, 1]\n[70, 0]\n[66, 4]\n[59, 11]\n[65, 5]\n[66, 4]\n[51, 19]\n[68, 2]\n[67, 3]\n[68, 2]\n[57, 13]]", fillcolor="#fdf7f3"] ;
238 -> 258 ;
259 [label="gini = 0.0\nsamples = 1\nvalue = [[4, 0]\n[4, 0]\n[4, 0]\n[4, 0]\n[4, 0]\n[4, 0]\n[4, 0]\n[4, 0]\n[4, 0]\n[4, 0]\n[4, 0]\n[4, 0]\n[4, 0]\n[4, 0]\n[4, 0]\n[0, 4]]", fillcolor="#e58139"] ;
258 -> 259 ;
260 [label="x[102] <= 0.35\ngini = 0.11\nsamples = 49\nvalue = [[66, 0]\n[66, 0]\n[66, 0]\n[60, 6]\n[66, 0]\n[65, 1]\n[66, 0]\n[62, 4]\n[55, 11]\n[61, 5]\n[62, 4]\n[47, 19]\n[64, 2]\n[63, 3]\n[64, 2]\n[57, 9]]", fillcolor="#fdf8f3"] ;
258 -> 260 ;
261 [label="x[81] <= 0.04\ngini = 0.1\nsamples = 44\nvalue = [[60, 0]\n[60, 0]\n[60, 0]\n[54, 6]\n[60, 0]\n[60, 0]\n[60, 0]\n[60, 0]\n[49, 11]\n[56, 4]\n[56, 4]\n[41, 19]\n[58, 2]\n[57, 3]\n[58, 2]\n[51, 9]]", fillcolor="#fdf4ee"] ;
260 -> 261 ;
262 [label="x[41] <= 0.06\ngini = 0.1\nsamples = 32\nvalue = [[43, 0]\n[43, 0]\n[43, 0]\n[38, 5]\n[43, 0]\n[43, 0]\n[43, 0]\n[43, 0]\n[37, 6]\n[40, 3]\n[39, 4]\n[25, 18]\n[41, 2]\n[40, 3]\n[42, 1]\n[42, 1]]", fillcolor="#fbede3"] ;
261 -> 262 ;
263 [label="x[68] <= 0.13\ngini = 0.1\nsamples = 9\nvalue = [[13, 0]\n[13, 0]\n[13, 0]\n[9, 4]\n[13, 0]\n[13, 0]\n[13, 0]\n[13, 0]\n[10, 3]\n[11, 2]\n[11, 2]\n[13, 0]\n[12, 1]\n[13, 0]\n[13, 0]\n[12, 1]]", fillcolor="#fcf0e8"] ;
262 -> 263 ;
264 [label="x[53] <= 0.05\ngini = 0.04\nsamples = 4\nvalue = [[5, 0]\n[5, 0]\n[5, 0]\n[1, 4]\n[5, 0]\n[5, 0]\n[5, 0]\n[5, 0]\n[5, 0]\n[5, 0]\n[5, 0]\n[5, 0]\n[4, 1]\n[5, 0]\n[5, 0]\n[5, 0]]", fillcolor="#eeae80"] ;
263 -> 264 ;
265 [label="gini = 0.0\nsamples = 1\nvalue = [[1, 0]\n[1, 0]\n[1, 0]\n[1, 0]\n[1, 0]\n[1, 0]\n[1, 0]\n[1, 0]\n[1, 0]\n[1, 0]\n[1, 0]\n[1, 0]\n[0, 1]\n[1, 0]\n[1, 0]\n[1, 0]]", fillcolor="#e58139"] ;
264 -> 265 ;
266 [label="gini = 0.0\nsamples = 3\nvalue = [[4, 0]\n[4, 0]\n[4, 0]\n[0, 4]\n[4, 0]\n[4, 0]\n[4, 0]\n[4, 0]\n[4, 0]\n[4, 0]\n[4, 0]\n[4, 0]\n[4, 0]\n[4, 0]\n[4, 0]\n[4, 0]]", fillcolor="#e58139"] ;
264 -> 266 ;
267 [label="x[62] <= 0.05\ngini = 0.09\nsamples = 5\nvalue = [[8, 0]\n[8, 0]\n[8, 0]\n[8, 0]\n[8, 0]\n[8, 0]\n[8, 0]\n[8, 0]\n[5, 3]\n[6, 2]\n[6, 2]\n[8, 0]\n[8, 0]\n[8, 0]\n[8, 0]\n[7, 1]]", fillcolor="#fae6d7"] ;
263 -> 267 ;
268 [label="gini = 0.0\nsamples = 2\nvalue = [[3, 0]\n[3, 0]\n[3, 0]\n[3, 0]\n[3, 0]\n[3, 0]\n[3, 0]\n[3, 0]\n[0, 3]\n[3, 0]\n[3, 0]\n[3, 0]\n[3, 0]\n[3, 0]\n[3, 0]\n[3, 0]]", fillcolor="#e58139"] ;
267 -> 268 ;
269 [label="x[28] <= 0.07\ngini = 0.08\nsamples = 3\nvalue = [[5, 0]\n[5, 0]\n[5, 0]\n[5, 0]\n[5, 0]\n[5, 0]\n[5, 0]\n[5, 0]\n[5, 0]\n[3, 2]\n[3, 2]\n[5, 0]\n[5, 0]\n[5, 0]\n[5, 0]\n[4, 1]]", fillcolor="#f8dbc6"] ;
267 -> 269 ;
270 [label="x[15] <= 0.05\ngini = 0.06\nsamples = 2\nvalue = [[3, 0]\n[3, 0]\n[3, 0]\n[3, 0]\n[3, 0]\n[3, 0]\n[3, 0]\n[3, 0]\n[3, 0]\n[3, 0]\n[1, 2]\n[3, 0]\n[3, 0]\n[3, 0]\n[3, 0]\n[2, 1]]", fillcolor="#f2bf9b"] ;
269 -> 270 ;
271 [label="gini = 0.0\nsamples = 1\nvalue = [[1, 0]\n[1, 0]\n[1, 0]\n[1, 0]\n[1, 0]\n[1, 0]\n[1, 0]\n[1, 0]\n[1, 0]\n[1, 0]\n[1, 0]\n[1, 0]\n[1, 0]\n[1, 0]\n[1, 0]\n[0, 1]]", fillcolor="#e58139"] ;
270 -> 271 ;
272 [label="gini = 0.0\nsamples = 1\nvalue = [[2, 0]\n[2, 0]\n[2, 0]\n[2, 0]\n[2, 0]\n[2, 0]\n[2, 0]\n[2, 0]\n[2, 0]\n[2, 0]\n[0, 2]\n[2, 0]\n[2, 0]\n[2, 0]\n[2, 0]\n[2, 0]]", fillcolor="#e58139"] ;
270 -> 272 ;
273 [label="gini = 0.0\nsamples = 1\nvalue = [[2, 0]\n[2, 0]\n[2, 0]\n[2, 0]\n[2, 0]\n[2, 0]\n[2, 0]\n[2, 0]\n[2, 0]\n[0, 2]\n[2, 0]\n[2, 0]\n[2, 0]\n[2, 0]\n[2, 0]\n[2, 0]]", fillcolor="#e58139"] ;
269 -> 273 ;
274 [label="x[9] <= 0.17\ngini = 0.08\nsamples = 23\nvalue = [[30, 0]\n[30, 0]\n[30, 0]\n[29, 1]\n[30, 0]\n[30, 0]\n[30, 0]\n[30, 0]\n[27, 3]\n[29, 1]\n[28, 2]\n[12, 18]\n[29, 1]\n[27, 3]\n[29, 1]\n[30, 0]]", fillcolor="#f7d7c0"] ;
262 -> 274 ;
275 [label="x[4] <= 0.09\ngini = 0.07\nsamples = 22\nvalue = [[27, 0]\n[27, 0]\n[27, 0]\n[26, 1]\n[27, 0]\n[27, 0]\n[27, 0]\n[27, 0]\n[24, 3]\n[26, 1]\n[25, 2]\n[9, 18]\n[26, 1]\n[27, 0]\n[26, 1]\n[27, 0]]", fillcolor="#f4ccae"] ;
274 -> 275 ;
276 [label="x[93] <= 0.06\ngini = 0.04\nsamples = 17\nvalue = [[21, 0]\n[21, 0]\n[21, 0]\n[21, 0]\n[21, 0]\n[21, 0]\n[21, 0]\n[21, 0]\n[21, 0]\n[20, 1]\n[19, 2]\n[4, 17]\n[20, 1]\n[21, 0]\n[21, 0]\n[21, 0]]", fillcolor="#efaf82"] ;
275 -> 276 ;
277 [label="x[11] <= 0.12\ngini = 0.02\nsamples = 15\nvalue = [[19, 0]\n[19, 0]\n[19, 0]\n[19, 0]\n[19, 0]\n[19, 0]\n[19, 0]\n[19, 0]\n[19, 0]\n[18, 1]\n[18, 1]\n[2, 17]\n[19, 0]\n[19, 0]\n[19, 0]\n[19, 0]]", fillcolor="#eb9c64"] ;
276 -> 277 ;
278 [label="x[24] <= 0.22\ngini = 0.01\nsamples = 14\nvalue = [[18, 0]\n[18, 0]\n[18, 0]\n[18, 0]\n[18, 0]\n[18, 0]\n[18, 0]\n[18, 0]\n[18, 0]\n[18, 0]\n[17, 1]\n[1, 17]\n[18, 0]\n[18, 0]\n[18, 0]\n[18, 0]]", fillcolor="#e89050"] ;
277 -> 278 ;
279 [label="gini = 0.0\nsamples = 13\nvalue = [[17, 0]\n[17, 0]\n[17, 0]\n[17, 0]\n[17, 0]\n[17, 0]\n[17, 0]\n[17, 0]\n[17, 0]\n[17, 0]\n[17, 0]\n[0, 17]\n[17, 0]\n[17, 0]\n[17, 0]\n[17, 0]]", fillcolor="#e58139"] ;
278 -> 279 ;
280 [label="gini = 0.0\nsamples = 1\nvalue = [[1, 0]\n[1, 0]\n[1, 0]\n[1, 0]\n[1, 0]\n[1, 0]\n[1, 0]\n[1, 0]\n[1, 0]\n[1, 0]\n[0, 1]\n[1, 0]\n[1, 0]\n[1, 0]\n[1, 0]\n[1, 0]]", fillcolor="#e58139"] ;
278 -> 280 ;
281 [label="gini = 0.0\nsamples = 1\nvalue = [[1, 0]\n[1, 0]\n[1, 0]\n[1, 0]\n[1, 0]\n[1, 0]\n[1, 0]\n[1, 0]\n[1, 0]\n[0, 1]\n[1, 0]\n[1, 0]\n[1, 0]\n[1, 0]\n[1, 0]\n[1, 0]]", fillcolor="#e58139"] ;
277 -> 281 ;
282 [label="x[7] <= 0.45\ngini = 0.06\nsamples = 2\nvalue = [[2, 0]\n[2, 0]\n[2, 0]\n[2, 0]\n[2, 0]\n[2, 0]\n[2, 0]\n[2, 0]\n[2, 0]\n[2, 0]\n[1, 1]\n[2, 0]\n[1, 1]\n[2, 0]\n[2, 0]\n[2, 0]]", fillcolor="#f3c7a7"] ;
276 -> 282 ;
283 [label="gini = 0.0\nsamples = 1\nvalue = [[1, 0]\n[1, 0]\n[1, 0]\n[1, 0]\n[1, 0]\n[1, 0]\n[1, 0]\n[1, 0]\n[1, 0]\n[1, 0]\n[1, 0]\n[1, 0]\n[0, 1]\n[1, 0]\n[1, 0]\n[1, 0]]", fillcolor="#e58139"] ;
282 -> 283 ;
284 [label="gini = 0.0\nsamples = 1\nvalue = [[1, 0]\n[1, 0]\n[1, 0]\n[1, 0]\n[1, 0]\n[1, 0]\n[1, 0]\n[1, 0]\n[1, 0]\n[1, 0]\n[0, 1]\n[1, 0]\n[1, 0]\n[1, 0]\n[1, 0]\n[1, 0]]", fillcolor="#e58139"] ;
282 -> 284 ;
285 [label="x[52] <= 0.04\ngini = 0.08\nsamples = 5\nvalue = [[6, 0]\n[6, 0]\n[6, 0]\n[5, 1]\n[6, 0]\n[6, 0]\n[6, 0]\n[6, 0]\n[3, 3]\n[6, 0]\n[6, 0]\n[5, 1]\n[6, 0]\n[6, 0]\n[5, 1]\n[6, 0]]", fillcolor="#f8dfcc"] ;
275 -> 285 ;
286 [label="x[4] <= 0.14\ngini = 0.08\nsamples = 3\nvalue = [[3, 0]\n[3, 0]\n[3, 0]\n[2, 1]\n[3, 0]\n[3, 0]\n[3, 0]\n[3, 0]\n[3, 0]\n[3, 0]\n[3, 0]\n[2, 1]\n[3, 0]\n[3, 0]\n[2, 1]\n[3, 0]]", fillcolor="#f8dfcc"] ;
285 -> 286 ;
287 [label="gini = 0.0\nsamples = 1\nvalue = [[1, 0]\n[1, 0]\n[1, 0]\n[1, 0]\n[1, 0]\n[1, 0]\n[1, 0]\n[1, 0]\n[1, 0]\n[1, 0]\n[1, 0]\n[0, 1]\n[1, 0]\n[1, 0]\n[1, 0]\n[1, 0]]", fillcolor="#e58139"] ;
286 -> 287 ;
288 [label="x[95] <= 0.02\ngini = 0.06\nsamples = 2\nvalue = [[2, 0]\n[2, 0]\n[2, 0]\n[1, 1]\n[2, 0]\n[2, 0]\n[2, 0]\n[2, 0]\n[2, 0]\n[2, 0]\n[2, 0]\n[2, 0]\n[2, 0]\n[2, 0]\n[1, 1]\n[2, 0]]", fillcolor="#f3c7a7"] ;
286 -> 288 ;
289 [label="gini = 0.0\nsamples = 1\nvalue = [[1, 0]\n[1, 0]\n[1, 0]\n[0, 1]\n[1, 0]\n[1, 0]\n[1, 0]\n[1, 0]\n[1, 0]\n[1, 0]\n[1, 0]\n[1, 0]\n[1, 0]\n[1, 0]\n[1, 0]\n[1, 0]]", fillcolor="#e58139"] ;
288 -> 289 ;
290 [label="gini = 0.0\nsamples = 1\nvalue = [[1, 0]\n[1, 0]\n[1, 0]\n[1, 0]\n[1, 0]\n[1, 0]\n[1, 0]\n[1, 0]\n[1, 0]\n[1, 0]\n[1, 0]\n[1, 0]\n[1, 0]\n[1, 0]\n[0, 1]\n[1, 0]]", fillcolor="#e58139"] ;
288 -> 290 ;
291 [label="gini = 0.0\nsamples = 2\nvalue = [[3, 0]\n[3, 0]\n[3, 0]\n[3, 0]\n[3, 0]\n[3, 0]\n[3, 0]\n[3, 0]\n[0, 3]\n[3, 0]\n[3, 0]\n[3, 0]\n[3, 0]\n[3, 0]\n[3, 0]\n[3, 0]]", fillcolor="#e58139"] ;
285 -> 291 ;
292 [label="gini = 0.0\nsamples = 1\nvalue = [[3, 0]\n[3, 0]\n[3, 0]\n[3, 0]\n[3, 0]\n[3, 0]\n[3, 0]\n[3, 0]\n[3, 0]\n[3, 0]\n[3, 0]\n[3, 0]\n[3, 0]\n[0, 3]\n[3, 0]\n[3, 0]]", fillcolor="#e58139"] ;
274 -> 292 ;
293 [label="x[22] <= 0.04\ngini = 0.08\nsamples = 12\nvalue = [[17, 0]\n[17, 0]\n[17, 0]\n[16, 1]\n[17, 0]\n[17, 0]\n[17, 0]\n[17, 0]\n[12, 5]\n[16, 1]\n[17, 0]\n[16, 1]\n[17, 0]\n[17, 0]\n[16, 1]\n[9, 8]]", fillcolor="#f9e0cf"] ;
261 -> 293 ;
294 [label="x[16] <= 0.02\ngini = 0.07\nsamples = 6\nvalue = [[8, 0]\n[8, 0]\n[8, 0]\n[8, 0]\n[8, 0]\n[8, 0]\n[8, 0]\n[8, 0]\n[3, 5]\n[7, 1]\n[8, 0]\n[7, 1]\n[8, 0]\n[8, 0]\n[7, 1]\n[8, 0]]", fillcolor="#f5d0b5"] ;
293 -> 294 ;
295 [label="gini = 0.0\nsamples = 3\nvalue = [[5, 0]\n[5, 0]\n[5, 0]\n[5, 0]\n[5, 0]\n[5, 0]\n[5, 0]\n[5, 0]\n[0, 5]\n[5, 0]\n[5, 0]\n[5, 0]\n[5, 0]\n[5, 0]\n[5, 0]\n[5, 0]]", fillcolor="#e58139"] ;
294 -> 295 ;
296 [label="x[13] <= 0.09\ngini = 0.08\nsamples = 3\nvalue = [[3, 0]\n[3, 0]\n[3, 0]\n[3, 0]\n[3, 0]\n[3, 0]\n[3, 0]\n[3, 0]\n[3, 0]\n[2, 1]\n[3, 0]\n[2, 1]\n[3, 0]\n[3, 0]\n[2, 1]\n[3, 0]]", fillcolor="#f8dfcc"] ;
294 -> 296 ;
297 [label="gini = 0.0\nsamples = 1\nvalue = [[1, 0]\n[1, 0]\n[1, 0]\n[1, 0]\n[1, 0]\n[1, 0]\n[1, 0]\n[1, 0]\n[1, 0]\n[0, 1]\n[1, 0]\n[1, 0]\n[1, 0]\n[1, 0]\n[1, 0]\n[1, 0]]", fillcolor="#e58139"] ;
296 -> 297 ;
298 [label="x[45] <= 0.11\ngini = 0.06\nsamples = 2\nvalue = [[2, 0]\n[2, 0]\n[2, 0]\n[2, 0]\n[2, 0]\n[2, 0]\n[2, 0]\n[2, 0]\n[2, 0]\n[2, 0]\n[2, 0]\n[1, 1]\n[2, 0]\n[2, 0]\n[1, 1]\n[2, 0]]", fillcolor="#f3c7a7"] ;
296 -> 298 ;
299 [label="gini = 0.0\nsamples = 1\nvalue = [[1, 0]\n[1, 0]\n[1, 0]\n[1, 0]\n[1, 0]\n[1, 0]\n[1, 0]\n[1, 0]\n[1, 0]\n[1, 0]\n[1, 0]\n[0, 1]\n[1, 0]\n[1, 0]\n[1, 0]\n[1, 0]]", fillcolor="#e58139"] ;
298 -> 299 ;
300 [label="gini = 0.0\nsamples = 1\nvalue = [[1, 0]\n[1, 0]\n[1, 0]\n[1, 0]\n[1, 0]\n[1, 0]\n[1, 0]\n[1, 0]\n[1, 0]\n[1, 0]\n[1, 0]\n[1, 0]\n[1, 0]\n[1, 0]\n[0, 1]\n[1, 0]]", fillcolor="#e58139"] ;
298 -> 300 ;
301 [label="x[100] <= 0.14\ngini = 0.02\nsamples = 6\nvalue = [[9, 0]\n[9, 0]\n[9, 0]\n[8, 1]\n[9, 0]\n[9, 0]\n[9, 0]\n[9, 0]\n[9, 0]\n[9, 0]\n[9, 0]\n[9, 0]\n[9, 0]\n[9, 0]\n[9, 0]\n[1, 8]]", fillcolor="#eb9d65"] ;
293 -> 301 ;
302 [label="gini = 0.0\nsamples = 5\nvalue = [[8, 0]\n[8, 0]\n[8, 0]\n[8, 0]\n[8, 0]\n[8, 0]\n[8, 0]\n[8, 0]\n[8, 0]\n[8, 0]\n[8, 0]\n[8, 0]\n[8, 0]\n[8, 0]\n[8, 0]\n[0, 8]]", fillcolor="#e58139"] ;
301 -> 302 ;
303 [label="gini = 0.0\nsamples = 1\nvalue = [[1, 0]\n[1, 0]\n[1, 0]\n[0, 1]\n[1, 0]\n[1, 0]\n[1, 0]\n[1, 0]\n[1, 0]\n[1, 0]\n[1, 0]\n[1, 0]\n[1, 0]\n[1, 0]\n[1, 0]\n[1, 0]]", fillcolor="#e58139"] ;
301 -> 303 ;
304 [label="x[87] <= 0.01\ngini = 0.06\nsamples = 5\nvalue = [[6, 0]\n[6, 0]\n[6, 0]\n[6, 0]\n[6, 0]\n[5, 1]\n[6, 0]\n[2, 4]\n[6, 0]\n[5, 1]\n[6, 0]\n[6, 0]\n[6, 0]\n[6, 0]\n[6, 0]\n[6, 0]]", fillcolor="#f3c7a7"] ;
260 -> 304 ;
305 [label="x[49] <= 0.15\ngini = 0.06\nsamples = 2\nvalue = [[2, 0]\n[2, 0]\n[2, 0]\n[2, 0]\n[2, 0]\n[1, 1]\n[2, 0]\n[2, 0]\n[2, 0]\n[1, 1]\n[2, 0]\n[2, 0]\n[2, 0]\n[2, 0]\n[2, 0]\n[2, 0]]", fillcolor="#f3c7a7"] ;
304 -> 305 ;
306 [label="gini = 0.0\nsamples = 1\nvalue = [[1, 0]\n[1, 0]\n[1, 0]\n[1, 0]\n[1, 0]\n[0, 1]\n[1, 0]\n[1, 0]\n[1, 0]\n[1, 0]\n[1, 0]\n[1, 0]\n[1, 0]\n[1, 0]\n[1, 0]\n[1, 0]]", fillcolor="#e58139"] ;
305 -> 306 ;
307 [label="gini = 0.0\nsamples = 1\nvalue = [[1, 0]\n[1, 0]\n[1, 0]\n[1, 0]\n[1, 0]\n[1, 0]\n[1, 0]\n[1, 0]\n[1, 0]\n[0, 1]\n[1, 0]\n[1, 0]\n[1, 0]\n[1, 0]\n[1, 0]\n[1, 0]]", fillcolor="#e58139"] ;
305 -> 307 ;
308 [label="gini = 0.0\nsamples = 3\nvalue = [[4, 0]\n[4, 0]\n[4, 0]\n[4, 0]\n[4, 0]\n[4, 0]\n[4, 0]\n[0, 4]\n[4, 0]\n[4, 0]\n[4, 0]\n[4, 0]\n[4, 0]\n[4, 0]\n[4, 0]\n[4, 0]]", fillcolor="#e58139"] ;
304 -> 308 ;
309 [label="x[2] <= 0.04\ngini = 0.09\nsamples = 74\nvalue = [[124, 2]\n[120, 6]\n[123, 3]\n[122, 4]\n[126, 0]\n[125, 1]\n[126, 0]\n[123, 3]\n[122, 4]\n[118, 8]\n[112, 14]\n[65, 61]\n[126, 0]\n[125, 1]\n[121, 5]\n[112, 14]]", fillcolor="#fae7da"] ;
193 -> 309 ;
310 [label="x[107] <= 0.59\ngini = 0.08\nsamples = 54\nvalue = [[88, 2]\n[88, 2]\n[87, 3]\n[88, 2]\n[90, 0]\n[89, 1]\n[90, 0]\n[87, 3]\n[86, 4]\n[85, 5]\n[83, 7]\n[36, 54]\n[90, 0]\n[89, 1]\n[89, 1]\n[85, 5]]", fillcolor="#f7d8c2"] ;
309 -> 310 ;
311 [label="x[6] <= 0.02\ngini = 0.07\nsamples = 52\nvalue = [[85, 0]\n[83, 2]\n[82, 3]\n[83, 2]\n[85, 0]\n[84, 1]\n[85, 0]\n[85, 0]\n[81, 4]\n[80, 5]\n[78, 7]\n[31, 54]\n[85, 0]\n[84, 1]\n[84, 1]\n[80, 5]]", fillcolor="#f6d2b8"] ;
310 -> 311 ;
312 [label="x[35] <= 0.0\ngini = 0.08\nsamples = 4\nvalue = [[8, 0]\n[6, 2]\n[8, 0]\n[8, 0]\n[8, 0]\n[8, 0]\n[8, 0]\n[8, 0]\n[8, 0]\n[4, 4]\n[6, 2]\n[8, 0]\n[8, 0]\n[8, 0]\n[8, 0]\n[8, 0]]", fillcolor="#f7d9c3"] ;
311 -> 312 ;
313 [label="gini = 0.0\nsamples = 2\nvalue = [[4, 0]\n[4, 0]\n[4, 0]\n[4, 0]\n[4, 0]\n[4, 0]\n[4, 0]\n[4, 0]\n[4, 0]\n[0, 4]\n[4, 0]\n[4, 0]\n[4, 0]\n[4, 0]\n[4, 0]\n[4, 0]]", fillcolor="#e58139"] ;
312 -> 313 ;
314 [label="x[45] <= 0.09\ngini = 0.06\nsamples = 2\nvalue = [[4, 0]\n[2, 2]\n[4, 0]\n[4, 0]\n[4, 0]\n[4, 0]\n[4, 0]\n[4, 0]\n[4, 0]\n[4, 0]\n[2, 2]\n[4, 0]\n[4, 0]\n[4, 0]\n[4, 0]\n[4, 0]]", fillcolor="#f3c7a7"] ;
312 -> 314 ;
315 [label="gini = 0.0\nsamples = 1\nvalue = [[2, 0]\n[0, 2]\n[2, 0]\n[2, 0]\n[2, 0]\n[2, 0]\n[2, 0]\n[2, 0]\n[2, 0]\n[2, 0]\n[2, 0]\n[2, 0]\n[2, 0]\n[2, 0]\n[2, 0]\n[2, 0]]", fillcolor="#e58139"] ;
314 -> 315 ;
316 [label="gini = 0.0\nsamples = 1\nvalue = [[2, 0]\n[2, 0]\n[2, 0]\n[2, 0]\n[2, 0]\n[2, 0]\n[2, 0]\n[2, 0]\n[2, 0]\n[2, 0]\n[0, 2]\n[2, 0]\n[2, 0]\n[2, 0]\n[2, 0]\n[2, 0]]", fillcolor="#e58139"] ;
314 -> 316 ;
317 [label="x[30] <= 0.21\ngini = 0.06\nsamples = 48\nvalue = [[77, 0]\n[77, 0]\n[74, 3]\n[75, 2]\n[77, 0]\n[76, 1]\n[77, 0]\n[77, 0]\n[73, 4]\n[76, 1]\n[72, 5]\n[23, 54]\n[77, 0]\n[76, 1]\n[76, 1]\n[72, 5]]", fillcolor="#f3c6a6"] ;
311 -> 317 ;
318 [label="x[106] <= 0.12\ngini = 0.06\nsamples = 46\nvalue = [[74, 0]\n[74, 0]\n[71, 3]\n[72, 2]\n[74, 0]\n[74, 0]\n[74, 0]\n[74, 0]\n[72, 2]\n[73, 1]\n[69, 5]\n[20, 54]\n[74, 0]\n[73, 1]\n[73, 1]\n[69, 5]]", fillcolor="#f2c19d"] ;
317 -> 318 ;
319 [label="x[77] <= 0.01\ngini = 0.05\nsamples = 43\nvalue = [[71, 0]\n[71, 0]\n[69, 2]\n[69, 2]\n[71, 0]\n[71, 0]\n[71, 0]\n[71, 0]\n[69, 2]\n[70, 1]\n[66, 5]\n[17, 54]\n[71, 0]\n[71, 0]\n[71, 0]\n[66, 5]]", fillcolor="#f1ba93"] ;
318 -> 319 ;
320 [label="gini = 0.0\nsamples = 1\nvalue = [[2, 0]\n[2, 0]\n[2, 0]\n[2, 0]\n[2, 0]\n[2, 0]\n[2, 0]\n[2, 0]\n[2, 0]\n[2, 0]\n[2, 0]\n[2, 0]\n[2, 0]\n[2, 0]\n[2, 0]\n[0, 2]]", fillcolor="#e58139"] ;
319 -> 320 ;
321 [label="x[33] <= 0.01\ngini = 0.05\nsamples = 42\nvalue = [[69, 0]\n[69, 0]\n[67, 2]\n[67, 2]\n[69, 0]\n[69, 0]\n[69, 0]\n[69, 0]\n[67, 2]\n[68, 1]\n[64, 5]\n[15, 54]\n[69, 0]\n[69, 0]\n[69, 0]\n[66, 3]]", fillcolor="#f0b68c"] ;
319 -> 321 ;
322 [label="gini = 0.0\nsamples = 1\nvalue = [[2, 0]\n[2, 0]\n[2, 0]\n[2, 0]\n[2, 0]\n[2, 0]\n[2, 0]\n[2, 0]\n[2, 0]\n[2, 0]\n[0, 2]\n[2, 0]\n[2, 0]\n[2, 0]\n[2, 0]\n[2, 0]]", fillcolor="#e58139"] ;
321 -> 322 ;
323 [label="x[96] <= 0.02\ngini = 0.04\nsamples = 41\nvalue = [[67, 0]\n[67, 0]\n[65, 2]\n[65, 2]\n[67, 0]\n[67, 0]\n[67, 0]\n[67, 0]\n[65, 2]\n[66, 1]\n[64, 3]\n[13, 54]\n[67, 0]\n[67, 0]\n[67, 0]\n[64, 3]]", fillcolor="#efb185"] ;
321 -> 323 ;
324 [label="x[33] <= 0.04\ngini = 0.1\nsamples = 12\nvalue = [[13, 0]\n[13, 0]\n[12, 1]\n[11, 2]\n[13, 0]\n[13, 0]\n[13, 0]\n[13, 0]\n[11, 2]\n[12, 1]\n[11, 2]\n[9, 4]\n[13, 0]\n[13, 0]\n[13, 0]\n[12, 1]]", fillcolor="#fdf4ed"] ;
323 -> 324 ;
325 [label="x[89] <= 0.03\ngini = 0.06\nsamples = 5\nvalue = [[6, 0]\n[6, 0]\n[5, 1]\n[6, 0]\n[6, 0]\n[6, 0]\n[6, 0]\n[6, 0]\n[6, 0]\n[6, 0]\n[6, 0]\n[2, 4]\n[6, 0]\n[6, 0]\n[6, 0]\n[5, 1]]", fillcolor="#f3c7a7"] ;
324 -> 325 ;
326 [label="x[37] <= 0.03\ngini = 0.06\nsamples = 2\nvalue = [[2, 0]\n[2, 0]\n[1, 1]\n[2, 0]\n[2, 0]\n[2, 0]\n[2, 0]\n[2, 0]\n[2, 0]\n[2, 0]\n[2, 0]\n[2, 0]\n[2, 0]\n[2, 0]\n[2, 0]\n[1, 1]]", fillcolor="#f3c7a7"] ;
325 -> 326 ;
327 [label="gini = 0.0\nsamples = 1\nvalue = [[1, 0]\n[1, 0]\n[0, 1]\n[1, 0]\n[1, 0]\n[1, 0]\n[1, 0]\n[1, 0]\n[1, 0]\n[1, 0]\n[1, 0]\n[1, 0]\n[1, 0]\n[1, 0]\n[1, 0]\n[1, 0]]", fillcolor="#e58139"] ;
326 -> 327 ;
328 [label="gini = 0.0\nsamples = 1\nvalue = [[1, 0]\n[1, 0]\n[1, 0]\n[1, 0]\n[1, 0]\n[1, 0]\n[1, 0]\n[1, 0]\n[1, 0]\n[1, 0]\n[1, 0]\n[1, 0]\n[1, 0]\n[1, 0]\n[1, 0]\n[0, 1]]", fillcolor="#e58139"] ;
326 -> 328 ;
329 [label="gini = 0.0\nsamples = 3\nvalue = [[4, 0]\n[4, 0]\n[4, 0]\n[4, 0]\n[4, 0]\n[4, 0]\n[4, 0]\n[4, 0]\n[4, 0]\n[4, 0]\n[4, 0]\n[0, 4]\n[4, 0]\n[4, 0]\n[4, 0]\n[4, 0]]", fillcolor="#e58139"] ;
325 -> 329 ;
330 [label="x[54] <= 0.03\ngini = 0.09\nsamples = 7\nvalue = [[7, 0]\n[7, 0]\n[7, 0]\n[5, 2]\n[7, 0]\n[7, 0]\n[7, 0]\n[7, 0]\n[5, 2]\n[6, 1]\n[5, 2]\n[7, 0]\n[7, 0]\n[7, 0]\n[7, 0]\n[7, 0]]", fillcolor="#fae8db"] ;
324 -> 330 ;
331 [label="x[93] <= 0.02\ngini = 0.08\nsamples = 5\nvalue = [[5, 0]\n[5, 0]\n[5, 0]\n[3, 2]\n[5, 0]\n[5, 0]\n[5, 0]\n[5, 0]\n[3, 2]\n[4, 1]\n[5, 0]\n[5, 0]\n[5, 0]\n[5, 0]\n[5, 0]\n[5, 0]]", fillcolor="#f8dbc6"] ;
330 -> 331 ;
332 [label="gini = 0.0\nsamples = 2\nvalue = [[2, 0]\n[2, 0]\n[2, 0]\n[0, 2]\n[2, 0]\n[2, 0]\n[2, 0]\n[2, 0]\n[2, 0]\n[2, 0]\n[2, 0]\n[2, 0]\n[2, 0]\n[2, 0]\n[2, 0]\n[2, 0]]", fillcolor="#e58139"] ;
331 -> 332 ;
333 [label="x[36] <= 0.12\ngini = 0.06\nsamples = 3\nvalue = [[3, 0]\n[3, 0]\n[3, 0]\n[3, 0]\n[3, 0]\n[3, 0]\n[3, 0]\n[3, 0]\n[1, 2]\n[2, 1]\n[3, 0]\n[3, 0]\n[3, 0]\n[3, 0]\n[3, 0]\n[3, 0]]", fillcolor="#f2bf9b"] ;
331 -> 333 ;
334 [label="gini = 0.0\nsamples = 2\nvalue = [[2, 0]\n[2, 0]\n[2, 0]\n[2, 0]\n[2, 0]\n[2, 0]\n[2, 0]\n[2, 0]\n[0, 2]\n[2, 0]\n[2, 0]\n[2, 0]\n[2, 0]\n[2, 0]\n[2, 0]\n[2, 0]]", fillcolor="#e58139"] ;
333 -> 334 ;
335 [label="gini = 0.0\nsamples = 1\nvalue = [[1, 0]\n[1, 0]\n[1, 0]\n[1, 0]\n[1, 0]\n[1, 0]\n[1, 0]\n[1, 0]\n[1, 0]\n[0, 1]\n[1, 0]\n[1, 0]\n[1, 0]\n[1, 0]\n[1, 0]\n[1, 0]]", fillcolor="#e58139"] ;
333 -> 335 ;
336 [label="gini = 0.0\nsamples = 2\nvalue = [[2, 0]\n[2, 0]\n[2, 0]\n[2, 0]\n[2, 0]\n[2, 0]\n[2, 0]\n[2, 0]\n[2, 0]\n[2, 0]\n[0, 2]\n[2, 0]\n[2, 0]\n[2, 0]\n[2, 0]\n[2, 0]]", fillcolor="#e58139"] ;
330 -> 336 ;
337 [label="x[61] <= 0.05\ngini = 0.02\nsamples = 29\nvalue = [[54, 0]\n[54, 0]\n[53, 1]\n[54, 0]\n[54, 0]\n[54, 0]\n[54, 0]\n[54, 0]\n[54, 0]\n[54, 0]\n[53, 1]\n[4, 50]\n[54, 0]\n[54, 0]\n[54, 0]\n[52, 2]]", fillcolor="#e99558"] ;
323 -> 337 ;
338 [label="x[7] <= 0.52\ngini = 0.01\nsamples = 24\nvalue = [[45, 0]\n[45, 0]\n[44, 1]\n[45, 0]\n[45, 0]\n[45, 0]\n[45, 0]\n[45, 0]\n[45, 0]\n[45, 0]\n[44, 1]\n[2, 43]\n[45, 0]\n[45, 0]\n[45, 0]\n[45, 0]]", fillcolor="#e78d4c"] ;
337 -> 338 ;
339 [label="x[82] <= 0.05\ngini = 0.01\nsamples = 22\nvalue = [[42, 0]\n[42, 0]\n[42, 0]\n[42, 0]\n[42, 0]\n[42, 0]\n[42, 0]\n[42, 0]\n[42, 0]\n[42, 0]\n[41, 1]\n[1, 41]\n[42, 0]\n[42, 0]\n[42, 0]\n[42, 0]]", fillcolor="#e68843"] ;
338 -> 339 ;
340 [label="gini = 0.0\nsamples = 19\nvalue = [[37, 0]\n[37, 0]\n[37, 0]\n[37, 0]\n[37, 0]\n[37, 0]\n[37, 0]\n[37, 0]\n[37, 0]\n[37, 0]\n[37, 0]\n[0, 37]\n[37, 0]\n[37, 0]\n[37, 0]\n[37, 0]]", fillcolor="#e58139"] ;
339 -> 340 ;
341 [label="x[2] <= 0.02\ngini = 0.04\nsamples = 3\nvalue = [[5, 0]\n[5, 0]\n[5, 0]\n[5, 0]\n[5, 0]\n[5, 0]\n[5, 0]\n[5, 0]\n[5, 0]\n[5, 0]\n[4, 1]\n[1, 4]\n[5, 0]\n[5, 0]\n[5, 0]\n[5, 0]]", fillcolor="#eeae80"] ;
339 -> 341 ;
342 [label="gini = 0.0\nsamples = 2\nvalue = [[4, 0]\n[4, 0]\n[4, 0]\n[4, 0]\n[4, 0]\n[4, 0]\n[4, 0]\n[4, 0]\n[4, 0]\n[4, 0]\n[4, 0]\n[0, 4]\n[4, 0]\n[4, 0]\n[4, 0]\n[4, 0]]", fillcolor="#e58139"] ;
341 -> 342 ;
343 [label="gini = 0.0\nsamples = 1\nvalue = [[1, 0]\n[1, 0]\n[1, 0]\n[1, 0]\n[1, 0]\n[1, 0]\n[1, 0]\n[1, 0]\n[1, 0]\n[1, 0]\n[0, 1]\n[1, 0]\n[1, 0]\n[1, 0]\n[1, 0]\n[1, 0]]", fillcolor="#e58139"] ;
341 -> 343 ;
344 [label="x[73] <= 0.02\ngini = 0.06\nsamples = 2\nvalue = [[3, 0]\n[3, 0]\n[2, 1]\n[3, 0]\n[3, 0]\n[3, 0]\n[3, 0]\n[3, 0]\n[3, 0]\n[3, 0]\n[3, 0]\n[1, 2]\n[3, 0]\n[3, 0]\n[3, 0]\n[3, 0]]", fillcolor="#f2bf9b"] ;
338 -> 344 ;
345 [label="gini = 0.0\nsamples = 1\nvalue = [[2, 0]\n[2, 0]\n[2, 0]\n[2, 0]\n[2, 0]\n[2, 0]\n[2, 0]\n[2, 0]\n[2, 0]\n[2, 0]\n[2, 0]\n[0, 2]\n[2, 0]\n[2, 0]\n[2, 0]\n[2, 0]]", fillcolor="#e58139"] ;
344 -> 345 ;
346 [label="gini = 0.0\nsamples = 1\nvalue = [[1, 0]\n[1, 0]\n[0, 1]\n[1, 0]\n[1, 0]\n[1, 0]\n[1, 0]\n[1, 0]\n[1, 0]\n[1, 0]\n[1, 0]\n[1, 0]\n[1, 0]\n[1, 0]\n[1, 0]\n[1, 0]]", fillcolor="#e58139"] ;
344 -> 346 ;
347 [label="x[87] <= 0.04\ngini = 0.04\nsamples = 5\nvalue = [[9, 0]\n[9, 0]\n[9, 0]\n[9, 0]\n[9, 0]\n[9, 0]\n[9, 0]\n[9, 0]\n[9, 0]\n[9, 0]\n[9, 0]\n[2, 7]\n[9, 0]\n[9, 0]\n[9, 0]\n[7, 2]]", fillcolor="#efb185"] ;
337 -> 347 ;
348 [label="gini = 0.0\nsamples = 3\nvalue = [[7, 0]\n[7, 0]\n[7, 0]\n[7, 0]\n[7, 0]\n[7, 0]\n[7, 0]\n[7, 0]\n[7, 0]\n[7, 0]\n[7, 0]\n[0, 7]\n[7, 0]\n[7, 0]\n[7, 0]\n[7, 0]]", fillcolor="#e58139"] ;
347 -> 348 ;
349 [label="gini = 0.0\nsamples = 2\nvalue = [[2, 0]\n[2, 0]\n[2, 0]\n[2, 0]\n[2, 0]\n[2, 0]\n[2, 0]\n[2, 0]\n[2, 0]\n[2, 0]\n[2, 0]\n[2, 0]\n[2, 0]\n[2, 0]\n[2, 0]\n[0, 2]]", fillcolor="#e58139"] ;
347 -> 349 ;
350 [label="x[81] <= 0.01\ngini = 0.08\nsamples = 3\nvalue = [[3, 0]\n[3, 0]\n[2, 1]\n[3, 0]\n[3, 0]\n[3, 0]\n[3, 0]\n[3, 0]\n[3, 0]\n[3, 0]\n[3, 0]\n[3, 0]\n[3, 0]\n[2, 1]\n[2, 1]\n[3, 0]]", fillcolor="#f8dfcc"] ;
318 -> 350 ;
351 [label="gini = 0.0\nsamples = 1\nvalue = [[1, 0]\n[1, 0]\n[1, 0]\n[1, 0]\n[1, 0]\n[1, 0]\n[1, 0]\n[1, 0]\n[1, 0]\n[1, 0]\n[1, 0]\n[1, 0]\n[1, 0]\n[0, 1]\n[1, 0]\n[1, 0]]", fillcolor="#e58139"] ;
350 -> 351 ;
352 [label="x[3] <= 0.03\ngini = 0.06\nsamples = 2\nvalue = [[2, 0]\n[2, 0]\n[1, 1]\n[2, 0]\n[2, 0]\n[2, 0]\n[2, 0]\n[2, 0]\n[2, 0]\n[2, 0]\n[2, 0]\n[2, 0]\n[2, 0]\n[2, 0]\n[1, 1]\n[2, 0]]", fillcolor="#f3c7a7"] ;
350 -> 352 ;
353 [label="gini = 0.0\nsamples = 1\nvalue = [[1, 0]\n[1, 0]\n[1, 0]\n[1, 0]\n[1, 0]\n[1, 0]\n[1, 0]\n[1, 0]\n[1, 0]\n[1, 0]\n[1, 0]\n[1, 0]\n[1, 0]\n[1, 0]\n[0, 1]\n[1, 0]]", fillcolor="#e58139"] ;
352 -> 353 ;
354 [label="gini = 0.0\nsamples = 1\nvalue = [[1, 0]\n[1, 0]\n[0, 1]\n[1, 0]\n[1, 0]\n[1, 0]\n[1, 0]\n[1, 0]\n[1, 0]\n[1, 0]\n[1, 0]\n[1, 0]\n[1, 0]\n[1, 0]\n[1, 0]\n[1, 0]]", fillcolor="#e58139"] ;
352 -> 354 ;
355 [label="x[67] <= 0.01\ngini = 0.06\nsamples = 2\nvalue = [[3, 0]\n[3, 0]\n[3, 0]\n[3, 0]\n[3, 0]\n[2, 1]\n[3, 0]\n[3, 0]\n[1, 2]\n[3, 0]\n[3, 0]\n[3, 0]\n[3, 0]\n[3, 0]\n[3, 0]\n[3, 0]]", fillcolor="#f2bf9b"] ;
317 -> 355 ;
356 [label="gini = 0.0\nsamples = 1\nvalue = [[1, 0]\n[1, 0]\n[1, 0]\n[1, 0]\n[1, 0]\n[0, 1]\n[1, 0]\n[1, 0]\n[1, 0]\n[1, 0]\n[1, 0]\n[1, 0]\n[1, 0]\n[1, 0]\n[1, 0]\n[1, 0]]", fillcolor="#e58139"] ;
355 -> 356 ;
357 [label="gini = 0.0\nsamples = 1\nvalue = [[2, 0]\n[2, 0]\n[2, 0]\n[2, 0]\n[2, 0]\n[2, 0]\n[2, 0]\n[2, 0]\n[0, 2]\n[2, 0]\n[2, 0]\n[2, 0]\n[2, 0]\n[2, 0]\n[2, 0]\n[2, 0]]", fillcolor="#e58139"] ;
355 -> 357 ;
358 [label="x[53] <= 0.06\ngini = 0.06\nsamples = 2\nvalue = [[3, 2]\n[5, 0]\n[5, 0]\n[5, 0]\n[5, 0]\n[5, 0]\n[5, 0]\n[2, 3]\n[5, 0]\n[5, 0]\n[5, 0]\n[5, 0]\n[5, 0]\n[5, 0]\n[5, 0]\n[5, 0]]", fillcolor="#f3c4a3"] ;
310 -> 358 ;
359 [label="gini = 0.0\nsamples = 1\nvalue = [[0, 2]\n[2, 0]\n[2, 0]\n[2, 0]\n[2, 0]\n[2, 0]\n[2, 0]\n[2, 0]\n[2, 0]\n[2, 0]\n[2, 0]\n[2, 0]\n[2, 0]\n[2, 0]\n[2, 0]\n[2, 0]]", fillcolor="#e58139"] ;
358 -> 359 ;
360 [label="gini = 0.0\nsamples = 1\nvalue = [[3, 0]\n[3, 0]\n[3, 0]\n[3, 0]\n[3, 0]\n[3, 0]\n[3, 0]\n[0, 3]\n[3, 0]\n[3, 0]\n[3, 0]\n[3, 0]\n[3, 0]\n[3, 0]\n[3, 0]\n[3, 0]]", fillcolor="#e58139"] ;
358 -> 360 ;
361 [label="x[4] <= 0.07\ngini = 0.1\nsamples = 20\nvalue = [[36, 0]\n[32, 4]\n[36, 0]\n[34, 2]\n[36, 0]\n[36, 0]\n[36, 0]\n[36, 0]\n[36, 0]\n[33, 3]\n[29, 7]\n[29, 7]\n[36, 0]\n[36, 0]\n[32, 4]\n[27, 9]]", fillcolor="#fdf5ef"] ;
309 -> 361 ;
362 [label="x[106] <= 0.11\ngini = 0.1\nsamples = 12\nvalue = [[22, 0]\n[20, 2]\n[22, 0]\n[20, 2]\n[22, 0]\n[22, 0]\n[22, 0]\n[22, 0]\n[22, 0]\n[19, 3]\n[17, 5]\n[15, 7]\n[22, 0]\n[22, 0]\n[19, 3]\n[22, 0]]", fillcolor="#fcf0e8"] ;
361 -> 362 ;
363 [label="x[81] <= 0.03\ngini = 0.1\nsamples = 10\nvalue = [[15, 0]\n[13, 2]\n[15, 0]\n[13, 2]\n[15, 0]\n[15, 0]\n[15, 0]\n[15, 0]\n[15, 0]\n[12, 3]\n[10, 5]\n[15, 0]\n[15, 0]\n[15, 0]\n[12, 3]\n[15, 0]]", fillcolor="#fbede3"] ;
362 -> 363 ;
364 [label="x[35] <= 0.02\ngini = 0.1\nsamples = 8\nvalue = [[11, 0]\n[9, 2]\n[11, 0]\n[9, 2]\n[11, 0]\n[11, 0]\n[11, 0]\n[11, 0]\n[11, 0]\n[8, 3]\n[10, 1]\n[11, 0]\n[11, 0]\n[11, 0]\n[8, 3]\n[11, 0]]", fillcolor="#fbeee4"] ;
363 -> 364 ;
365 [label="x[42] <= 0.03\ngini = 0.09\nsamples = 6\nvalue = [[8, 0]\n[6, 2]\n[8, 0]\n[6, 2]\n[8, 0]\n[8, 0]\n[8, 0]\n[8, 0]\n[8, 0]\n[5, 3]\n[7, 1]\n[8, 0]\n[8, 0]\n[8, 0]\n[8, 0]\n[8, 0]]", fillcolor="#fae6d7"] ;
364 -> 365 ;
366 [label="gini = 0.0\nsamples = 2\nvalue = [[3, 0]\n[3, 0]\n[3, 0]\n[3, 0]\n[3, 0]\n[3, 0]\n[3, 0]\n[3, 0]\n[3, 0]\n[0, 3]\n[3, 0]\n[3, 0]\n[3, 0]\n[3, 0]\n[3, 0]\n[3, 0]]", fillcolor="#e58139"] ;
365 -> 366 ;
367 [label="x[22] <= 0.04\ngini = 0.08\nsamples = 4\nvalue = [[5, 0]\n[3, 2]\n[5, 0]\n[3, 2]\n[5, 0]\n[5, 0]\n[5, 0]\n[5, 0]\n[5, 0]\n[5, 0]\n[4, 1]\n[5, 0]\n[5, 0]\n[5, 0]\n[5, 0]\n[5, 0]]", fillcolor="#f8dbc6"] ;
365 -> 367 ;
368 [label="gini = 0.0\nsamples = 1\nvalue = [[2, 0]\n[0, 2]\n[2, 0]\n[2, 0]\n[2, 0]\n[2, 0]\n[2, 0]\n[2, 0]\n[2, 0]\n[2, 0]\n[2, 0]\n[2, 0]\n[2, 0]\n[2, 0]\n[2, 0]\n[2, 0]]", fillcolor="#e58139"] ;
367 -> 368 ;
369 [label="x[4] <= 0.06\ngini = 0.06\nsamples = 3\nvalue = [[3, 0]\n[3, 0]\n[3, 0]\n[1, 2]\n[3, 0]\n[3, 0]\n[3, 0]\n[3, 0]\n[3, 0]\n[3, 0]\n[2, 1]\n[3, 0]\n[3, 0]\n[3, 0]\n[3, 0]\n[3, 0]]", fillcolor="#f2bf9b"] ;
367 -> 369 ;
370 [label="gini = 0.0\nsamples = 2\nvalue = [[2, 0]\n[2, 0]\n[2, 0]\n[0, 2]\n[2, 0]\n[2, 0]\n[2, 0]\n[2, 0]\n[2, 0]\n[2, 0]\n[2, 0]\n[2, 0]\n[2, 0]\n[2, 0]\n[2, 0]\n[2, 0]]", fillcolor="#e58139"] ;
369 -> 370 ;
371 [label="gini = 0.0\nsamples = 1\nvalue = [[1, 0]\n[1, 0]\n[1, 0]\n[1, 0]\n[1, 0]\n[1, 0]\n[1, 0]\n[1, 0]\n[1, 0]\n[1, 0]\n[0, 1]\n[1, 0]\n[1, 0]\n[1, 0]\n[1, 0]\n[1, 0]]", fillcolor="#e58139"] ;
369 -> 371 ;
372 [label="gini = 0.0\nsamples = 2\nvalue = [[3, 0]\n[3, 0]\n[3, 0]\n[3, 0]\n[3, 0]\n[3, 0]\n[3, 0]\n[3, 0]\n[3, 0]\n[3, 0]\n[3, 0]\n[3, 0]\n[3, 0]\n[3, 0]\n[0, 3]\n[3, 0]]", fillcolor="#e58139"] ;
364 -> 372 ;
373 [label="gini = 0.0\nsamples = 2\nvalue = [[4, 0]\n[4, 0]\n[4, 0]\n[4, 0]\n[4, 0]\n[4, 0]\n[4, 0]\n[4, 0]\n[4, 0]\n[4, 0]\n[0, 4]\n[4, 0]\n[4, 0]\n[4, 0]\n[4, 0]\n[4, 0]]", fillcolor="#e58139"] ;
363 -> 373 ;
374 [label="gini = 0.0\nsamples = 2\nvalue = [[7, 0]\n[7, 0]\n[7, 0]\n[7, 0]\n[7, 0]\n[7, 0]\n[7, 0]\n[7, 0]\n[7, 0]\n[7, 0]\n[7, 0]\n[0, 7]\n[7, 0]\n[7, 0]\n[7, 0]\n[7, 0]]", fillcolor="#e58139"] ;
362 -> 374 ;
375 [label="x[34] <= 0.07\ngini = 0.07\nsamples = 8\nvalue = [[14, 0]\n[12, 2]\n[14, 0]\n[14, 0]\n[14, 0]\n[14, 0]\n[14, 0]\n[14, 0]\n[14, 0]\n[14, 0]\n[12, 2]\n[14, 0]\n[14, 0]\n[14, 0]\n[13, 1]\n[5, 9]]", fillcolor="#f5cdb0"] ;
361 -> 375 ;
376 [label="x[54] <= 0.02\ngini = 0.04\nsamples = 6\nvalue = [[11, 0]\n[11, 0]\n[11, 0]\n[11, 0]\n[11, 0]\n[11, 0]\n[11, 0]\n[11, 0]\n[11, 0]\n[11, 0]\n[10, 1]\n[11, 0]\n[11, 0]\n[11, 0]\n[10, 1]\n[2, 9]]", fillcolor="#eead7e"] ;
375 -> 376 ;
377 [label="x[64] <= 0.02\ngini = 0.06\nsamples = 2\nvalue = [[2, 0]\n[2, 0]\n[2, 0]\n[2, 0]\n[2, 0]\n[2, 0]\n[2, 0]\n[2, 0]\n[2, 0]\n[2, 0]\n[1, 1]\n[2, 0]\n[2, 0]\n[2, 0]\n[1, 1]\n[2, 0]]", fillcolor="#f3c7a7"] ;
376 -> 377 ;
378 [label="gini = 0.0\nsamples = 1\nvalue = [[1, 0]\n[1, 0]\n[1, 0]\n[1, 0]\n[1, 0]\n[1, 0]\n[1, 0]\n[1, 0]\n[1, 0]\n[1, 0]\n[0, 1]\n[1, 0]\n[1, 0]\n[1, 0]\n[1, 0]\n[1, 0]]", fillcolor="#e58139"] ;
377 -> 378 ;
379 [label="gini = 0.0\nsamples = 1\nvalue = [[1, 0]\n[1, 0]\n[1, 0]\n[1, 0]\n[1, 0]\n[1, 0]\n[1, 0]\n[1, 0]\n[1, 0]\n[1, 0]\n[1, 0]\n[1, 0]\n[1, 0]\n[1, 0]\n[0, 1]\n[1, 0]]", fillcolor="#e58139"] ;
377 -> 379 ;
380 [label="gini = 0.0\nsamples = 4\nvalue = [[9, 0]\n[9, 0]\n[9, 0]\n[9, 0]\n[9, 0]\n[9, 0]\n[9, 0]\n[9, 0]\n[9, 0]\n[9, 0]\n[9, 0]\n[9, 0]\n[9, 0]\n[9, 0]\n[9, 0]\n[0, 9]]", fillcolor="#e58139"] ;
376 -> 380 ;
381 [label="x[88] <= 0.06\ngini = 0.06\nsamples = 2\nvalue = [[3, 0]\n[1, 2]\n[3, 0]\n[3, 0]\n[3, 0]\n[3, 0]\n[3, 0]\n[3, 0]\n[3, 0]\n[3, 0]\n[2, 1]\n[3, 0]\n[3, 0]\n[3, 0]\n[3, 0]\n[3, 0]]", fillcolor="#f2bf9b"] ;
375 -> 381 ;
382 [label="gini = 0.0\nsamples = 1\nvalue = [[2, 0]\n[0, 2]\n[2, 0]\n[2, 0]\n[2, 0]\n[2, 0]\n[2, 0]\n[2, 0]\n[2, 0]\n[2, 0]\n[2, 0]\n[2, 0]\n[2, 0]\n[2, 0]\n[2, 0]\n[2, 0]]", fillcolor="#e58139"] ;
381 -> 382 ;
383 [label="gini = 0.0\nsamples = 1\nvalue = [[1, 0]\n[1, 0]\n[1, 0]\n[1, 0]\n[1, 0]\n[1, 0]\n[1, 0]\n[1, 0]\n[1, 0]\n[1, 0]\n[0, 1]\n[1, 0]\n[1, 0]\n[1, 0]\n[1, 0]\n[1, 0]]", fillcolor="#e58139"] ;
381 -> 383 ;
384 [label="x[11] <= 0.05\ngini = 0.11\nsamples = 185\nvalue = [[326, 4]\n[309, 21]\n[321, 9]\n[303, 27]\n[326, 4]\n[325, 5]\n[330, 0]\n[323, 7]\n[285, 45]\n[272, 58]\n[292, 38]\n[290, 40]\n[325, 5]\n[321, 9]\n[316, 14]\n[286, 44]]", fillcolor="#fffefd"] ;
4 -> 384 ;
385 [label="x[64] <= 0.04\ngini = 0.11\nsamples = 121\nvalue = [[209, 3]\n[206, 6]\n[204, 8]\n[202, 10]\n[211, 1]\n[207, 5]\n[212, 0]\n[206, 6]\n[178, 34]\n[157, 55]\n[192, 20]\n[197, 15]\n[208, 4]\n[203, 9]\n[204, 8]\n[184, 28]]", fillcolor="#fefaf8"] ;
384 -> 385 ;
386 [label="x[6] <= 0.07\ngini = 0.11\nsamples = 98\nvalue = [[174, 1]\n[169, 6]\n[171, 4]\n[165, 10]\n[174, 1]\n[172, 3]\n[175, 0]\n[169, 6]\n[144, 31]\n[121, 54]\n[162, 13]\n[160, 15]\n[174, 1]\n[171, 4]\n[167, 8]\n[157, 18]]", fillcolor="#fdf7f2"] ;
385 -> 386 ;
387 [label="x[90] <= 0.04\ngini = 0.11\nsamples = 71\nvalue = [[124, 1]\n[119, 6]\n[121, 4]\n[115, 10]\n[124, 1]\n[123, 2]\n[125, 0]\n[120, 5]\n[98, 27]\n[101, 24]\n[117, 8]\n[114, 11]\n[124, 1]\n[122, 3]\n[118, 7]\n[110, 15]]", fillcolor="#fefcfa"] ;
386 -> 387 ;
388 [label="x[69] <= 0.06\ngini = 0.1\nsamples = 20\nvalue = [[38, 1]\n[35, 4]\n[37, 2]\n[38, 1]\n[39, 0]\n[39, 0]\n[39, 0]\n[39, 0]\n[37, 2]\n[23, 16]\n[36, 3]\n[31, 8]\n[38, 1]\n[39, 0]\n[38, 1]\n[39, 0]]", fillcolor="#fbece2"] ;
387 -> 388 ;
389 [label="x[52] <= 0.03\ngini = 0.09\nsamples = 18\nvalue = [[34, 1]\n[35, 0]\n[33, 2]\n[34, 1]\n[35, 0]\n[35, 0]\n[35, 0]\n[35, 0]\n[33, 2]\n[19, 16]\n[32, 3]\n[27, 8]\n[34, 1]\n[35, 0]\n[34, 1]\n[35, 0]]", fillcolor="#fae6d8"] ;
388 -> 389 ;
390 [label="x[37] <= 0.01\ngini = 0.06\nsamples = 10\nvalue = [[22, 0]\n[22, 0]\n[20, 2]\n[21, 1]\n[22, 0]\n[22, 0]\n[22, 0]\n[22, 0]\n[20, 2]\n[6, 16]\n[21, 1]\n[22, 0]\n[22, 0]\n[22, 0]\n[22, 0]\n[22, 0]]", fillcolor="#f2c09c"] ;
389 -> 390 ;
391 [label="x[28] <= 0.02\ngini = 0.09\nsamples = 4\nvalue = [[6, 0]\n[6, 0]\n[4, 2]\n[5, 1]\n[6, 0]\n[6, 0]\n[6, 0]\n[6, 0]\n[4, 2]\n[6, 0]\n[5, 1]\n[6, 0]\n[6, 0]\n[6, 0]\n[6, 0]\n[6, 0]]", fillcolor="#fae6d8"] ;
390 -> 391 ;
392 [label="gini = 0.0\nsamples = 1\nvalue = [[2, 0]\n[2, 0]\n[2, 0]\n[2, 0]\n[2, 0]\n[2, 0]\n[2, 0]\n[2, 0]\n[0, 2]\n[2, 0]\n[2, 0]\n[2, 0]\n[2, 0]\n[2, 0]\n[2, 0]\n[2, 0]]", fillcolor="#e58139"] ;
391 -> 392 ;
393 [label="x[35] <= 0.01\ngini = 0.08\nsamples = 3\nvalue = [[4, 0]\n[4, 0]\n[2, 2]\n[3, 1]\n[4, 0]\n[4, 0]\n[4, 0]\n[4, 0]\n[4, 0]\n[4, 0]\n[3, 1]\n[4, 0]\n[4, 0]\n[4, 0]\n[4, 0]\n[4, 0]]", fillcolor="#f7d9c3"] ;
391 -> 393 ;
394 [label="gini = 0.0\nsamples = 1\nvalue = [[2, 0]\n[2, 0]\n[0, 2]\n[2, 0]\n[2, 0]\n[2, 0]\n[2, 0]\n[2, 0]\n[2, 0]\n[2, 0]\n[2, 0]\n[2, 0]\n[2, 0]\n[2, 0]\n[2, 0]\n[2, 0]]", fillcolor="#e58139"] ;
393 -> 394 ;
395 [label="x[103] <= 0.08\ngini = 0.06\nsamples = 2\nvalue = [[2, 0]\n[2, 0]\n[2, 0]\n[1, 1]\n[2, 0]\n[2, 0]\n[2, 0]\n[2, 0]\n[2, 0]\n[2, 0]\n[1, 1]\n[2, 0]\n[2, 0]\n[2, 0]\n[2, 0]\n[2, 0]]", fillcolor="#f3c7a7"] ;
393 -> 395 ;
396 [label="gini = 0.0\nsamples = 1\nvalue = [[1, 0]\n[1, 0]\n[1, 0]\n[1, 0]\n[1, 0]\n[1, 0]\n[1, 0]\n[1, 0]\n[1, 0]\n[1, 0]\n[0, 1]\n[1, 0]\n[1, 0]\n[1, 0]\n[1, 0]\n[1, 0]]", fillcolor="#e58139"] ;
395 -> 396 ;
397 [label="gini = 0.0\nsamples = 1\nvalue = [[1, 0]\n[1, 0]\n[1, 0]\n[0, 1]\n[1, 0]\n[1, 0]\n[1, 0]\n[1, 0]\n[1, 0]\n[1, 0]\n[1, 0]\n[1, 0]\n[1, 0]\n[1, 0]\n[1, 0]\n[1, 0]]", fillcolor="#e58139"] ;
395 -> 397 ;
398 [label="gini = 0.0\nsamples = 6\nvalue = [[16, 0]\n[16, 0]\n[16, 0]\n[16, 0]\n[16, 0]\n[16, 0]\n[16, 0]\n[16, 0]\n[16, 0]\n[0, 16]\n[16, 0]\n[16, 0]\n[16, 0]\n[16, 0]\n[16, 0]\n[16, 0]]", fillcolor="#e58139"] ;
390 -> 398 ;
399 [label="x[49] <= 0.18\ngini = 0.07\nsamples = 8\nvalue = [[12, 1]\n[13, 0]\n[13, 0]\n[13, 0]\n[13, 0]\n[13, 0]\n[13, 0]\n[13, 0]\n[13, 0]\n[13, 0]\n[11, 2]\n[5, 8]\n[12, 1]\n[13, 0]\n[12, 1]\n[13, 0]]", fillcolor="#f6d2b9"] ;
389 -> 399 ;
400 [label="x[59] <= 0.05\ngini = 0.02\nsamples = 5\nvalue = [[9, 0]\n[9, 0]\n[9, 0]\n[9, 0]\n[9, 0]\n[9, 0]\n[9, 0]\n[9, 0]\n[9, 0]\n[9, 0]\n[9, 0]\n[1, 8]\n[8, 1]\n[9, 0]\n[9, 0]\n[9, 0]]", fillcolor="#eb9d65"] ;
399 -> 400 ;
401 [label="gini = 0.0\nsamples = 4\nvalue = [[8, 0]\n[8, 0]\n[8, 0]\n[8, 0]\n[8, 0]\n[8, 0]\n[8, 0]\n[8, 0]\n[8, 0]\n[8, 0]\n[8, 0]\n[0, 8]\n[8, 0]\n[8, 0]\n[8, 0]\n[8, 0]]", fillcolor="#e58139"] ;
400 -> 401 ;
402 [label="gini = 0.0\nsamples = 1\nvalue = [[1, 0]\n[1, 0]\n[1, 0]\n[1, 0]\n[1, 0]\n[1, 0]\n[1, 0]\n[1, 0]\n[1, 0]\n[1, 0]\n[1, 0]\n[1, 0]\n[0, 1]\n[1, 0]\n[1, 0]\n[1, 0]]", fillcolor="#e58139"] ;
400 -> 402 ;
403 [label="x[24] <= 0.21\ngini = 0.08\nsamples = 3\nvalue = [[3, 1]\n[4, 0]\n[4, 0]\n[4, 0]\n[4, 0]\n[4, 0]\n[4, 0]\n[4, 0]\n[4, 0]\n[4, 0]\n[2, 2]\n[4, 0]\n[4, 0]\n[4, 0]\n[3, 1]\n[4, 0]]", fillcolor="#f7d9c3"] ;
399 -> 403 ;
404 [label="x[59] <= 0.01\ngini = 0.06\nsamples = 2\nvalue = [[1, 1]\n[2, 0]\n[2, 0]\n[2, 0]\n[2, 0]\n[2, 0]\n[2, 0]\n[2, 0]\n[2, 0]\n[2, 0]\n[2, 0]\n[2, 0]\n[2, 0]\n[2, 0]\n[1, 1]\n[2, 0]]", fillcolor="#f3c7a7"] ;
403 -> 404 ;
405 [label="gini = 0.0\nsamples = 1\nvalue = [[0, 1]\n[1, 0]\n[1, 0]\n[1, 0]\n[1, 0]\n[1, 0]\n[1, 0]\n[1, 0]\n[1, 0]\n[1, 0]\n[1, 0]\n[1, 0]\n[1, 0]\n[1, 0]\n[1, 0]\n[1, 0]]", fillcolor="#e58139"] ;
404 -> 405 ;
406 [label="gini = 0.0\nsamples = 1\nvalue = [[1, 0]\n[1, 0]\n[1, 0]\n[1, 0]\n[1, 0]\n[1, 0]\n[1, 0]\n[1, 0]\n[1, 0]\n[1, 0]\n[1, 0]\n[1, 0]\n[1, 0]\n[1, 0]\n[0, 1]\n[1, 0]]", fillcolor="#e58139"] ;
404 -> 406 ;
407 [label="gini = 0.0\nsamples = 1\nvalue = [[2, 0]\n[2, 0]\n[2, 0]\n[2, 0]\n[2, 0]\n[2, 0]\n[2, 0]\n[2, 0]\n[2, 0]\n[2, 0]\n[0, 2]\n[2, 0]\n[2, 0]\n[2, 0]\n[2, 0]\n[2, 0]]", fillcolor="#e58139"] ;
403 -> 407 ;
408 [label="gini = 0.0\nsamples = 2\nvalue = [[4, 0]\n[0, 4]\n[4, 0]\n[4, 0]\n[4, 0]\n[4, 0]\n[4, 0]\n[4, 0]\n[4, 0]\n[4, 0]\n[4, 0]\n[4, 0]\n[4, 0]\n[4, 0]\n[4, 0]\n[4, 0]]", fillcolor="#e58139"] ;
388 -> 408 ;
409 [label="x[8] <= 0.02\ngini = 0.11\nsamples = 51\nvalue = [[86, 0]\n[84, 2]\n[84, 2]\n[77, 9]\n[85, 1]\n[84, 2]\n[86, 0]\n[81, 5]\n[61, 25]\n[78, 8]\n[81, 5]\n[83, 3]\n[86, 0]\n[83, 3]\n[80, 6]\n[71, 15]]", fillcolor="#fef8f4"] ;
387 -> 409 ;
410 [label="x[38] <= 0.01\ngini = 0.09\nsamples = 10\nvalue = [[19, 0]\n[18, 1]\n[17, 2]\n[19, 0]\n[18, 1]\n[19, 0]\n[19, 0]\n[19, 0]\n[19, 0]\n[19, 0]\n[19, 0]\n[17, 2]\n[19, 0]\n[18, 1]\n[16, 3]\n[10, 9]]", fillcolor="#fae6d8"] ;
409 -> 410 ;
411 [label="x[4] <= 0.04\ngini = 0.09\nsamples = 5\nvalue = [[8, 0]\n[8, 0]\n[6, 2]\n[8, 0]\n[8, 0]\n[8, 0]\n[8, 0]\n[8, 0]\n[8, 0]\n[8, 0]\n[8, 0]\n[6, 2]\n[8, 0]\n[7, 1]\n[5, 3]\n[8, 0]]", fillcolor="#fae6d7"] ;
410 -> 411 ;
412 [label="gini = 0.0\nsamples = 2\nvalue = [[3, 0]\n[3, 0]\n[3, 0]\n[3, 0]\n[3, 0]\n[3, 0]\n[3, 0]\n[3, 0]\n[3, 0]\n[3, 0]\n[3, 0]\n[3, 0]\n[3, 0]\n[3, 0]\n[0, 3]\n[3, 0]]", fillcolor="#e58139"] ;
411 -> 412 ;
413 [label="x[105] <= 0.04\ngini = 0.08\nsamples = 3\nvalue = [[5, 0]\n[5, 0]\n[3, 2]\n[5, 0]\n[5, 0]\n[5, 0]\n[5, 0]\n[5, 0]\n[5, 0]\n[5, 0]\n[5, 0]\n[3, 2]\n[5, 0]\n[4, 1]\n[5, 0]\n[5, 0]]", fillcolor="#f8dbc6"] ;
411 -> 413 ;
414 [label="gini = 0.0\nsamples = 1\nvalue = [[2, 0]\n[2, 0]\n[0, 2]\n[2, 0]\n[2, 0]\n[2, 0]\n[2, 0]\n[2, 0]\n[2, 0]\n[2, 0]\n[2, 0]\n[2, 0]\n[2, 0]\n[2, 0]\n[2, 0]\n[2, 0]]", fillcolor="#e58139"] ;
413 -> 414 ;
415 [label="x[31] <= 0.16\ngini = 0.06\nsamples = 2\nvalue = [[3, 0]\n[3, 0]\n[3, 0]\n[3, 0]\n[3, 0]\n[3, 0]\n[3, 0]\n[3, 0]\n[3, 0]\n[3, 0]\n[3, 0]\n[1, 2]\n[3, 0]\n[2, 1]\n[3, 0]\n[3, 0]]", fillcolor="#f2bf9b"] ;
413 -> 415 ;
416 [label="gini = 0.0\nsamples = 1\nvalue = [[1, 0]\n[1, 0]\n[1, 0]\n[1, 0]\n[1, 0]\n[1, 0]\n[1, 0]\n[1, 0]\n[1, 0]\n[1, 0]\n[1, 0]\n[1, 0]\n[1, 0]\n[0, 1]\n[1, 0]\n[1, 0]]", fillcolor="#e58139"] ;
415 -> 416 ;
417 [label="gini = 0.0\nsamples = 1\nvalue = [[2, 0]\n[2, 0]\n[2, 0]\n[2, 0]\n[2, 0]\n[2, 0]\n[2, 0]\n[2, 0]\n[2, 0]\n[2, 0]\n[2, 0]\n[0, 2]\n[2, 0]\n[2, 0]\n[2, 0]\n[2, 0]]", fillcolor="#e58139"] ;
415 -> 417 ;
418 [label="x[46] <= 0.05\ngini = 0.04\nsamples = 5\nvalue = [[11, 0]\n[10, 1]\n[11, 0]\n[11, 0]\n[10, 1]\n[11, 0]\n[11, 0]\n[11, 0]\n[11, 0]\n[11, 0]\n[11, 0]\n[11, 0]\n[11, 0]\n[11, 0]\n[11, 0]\n[2, 9]]", fillcolor="#eead7e"] ;
410 -> 418 ;
419 [label="gini = 0.0\nsamples = 3\nvalue = [[9, 0]\n[9, 0]\n[9, 0]\n[9, 0]\n[9, 0]\n[9, 0]\n[9, 0]\n[9, 0]\n[9, 0]\n[9, 0]\n[9, 0]\n[9, 0]\n[9, 0]\n[9, 0]\n[9, 0]\n[0, 9]]", fillcolor="#e58139"] ;
418 -> 419 ;
420 [label="x[78] <= 0.05\ngini = 0.06\nsamples = 2\nvalue = [[2, 0]\n[1, 1]\n[2, 0]\n[2, 0]\n[1, 1]\n[2, 0]\n[2, 0]\n[2, 0]\n[2, 0]\n[2, 0]\n[2, 0]\n[2, 0]\n[2, 0]\n[2, 0]\n[2, 0]\n[2, 0]]", fillcolor="#f3c7a7"] ;
418 -> 420 ;
421 [label="gini = 0.0\nsamples = 1\nvalue = [[1, 0]\n[0, 1]\n[1, 0]\n[1, 0]\n[1, 0]\n[1, 0]\n[1, 0]\n[1, 0]\n[1, 0]\n[1, 0]\n[1, 0]\n[1, 0]\n[1, 0]\n[1, 0]\n[1, 0]\n[1, 0]]", fillcolor="#e58139"] ;
420 -> 421 ;
422 [label="gini = 0.0\nsamples = 1\nvalue = [[1, 0]\n[1, 0]\n[1, 0]\n[1, 0]\n[0, 1]\n[1, 0]\n[1, 0]\n[1, 0]\n[1, 0]\n[1, 0]\n[1, 0]\n[1, 0]\n[1, 0]\n[1, 0]\n[1, 0]\n[1, 0]]", fillcolor="#e58139"] ;
420 -> 422 ;
423 [label="x[69] <= 0.01\ngini = 0.1\nsamples = 41\nvalue = [[67, 0]\n[66, 1]\n[67, 0]\n[58, 9]\n[67, 0]\n[65, 2]\n[67, 0]\n[62, 5]\n[42, 25]\n[59, 8]\n[62, 5]\n[66, 1]\n[67, 0]\n[65, 2]\n[64, 3]\n[61, 6]]", fillcolor="#fcf2ea"] ;
409 -> 423 ;
424 [label="x[88] <= 0.07\ngini = 0.07\nsamples = 13\nvalue = [[25, 0]\n[24, 1]\n[25, 0]\n[22, 3]\n[25, 0]\n[25, 0]\n[25, 0]\n[25, 0]\n[9, 16]\n[24, 1]\n[25, 0]\n[25, 0]\n[25, 0]\n[24, 1]\n[22, 3]\n[25, 0]]", fillcolor="#f5cfb4"] ;
423 -> 424 ;
425 [label="x[7] <= 0.52\ngini = 0.04\nsamples = 10\nvalue = [[20, 0]\n[20, 0]\n[20, 0]\n[20, 0]\n[20, 0]\n[20, 0]\n[20, 0]\n[20, 0]\n[4, 16]\n[19, 1]\n[20, 0]\n[20, 0]\n[20, 0]\n[20, 0]\n[17, 3]\n[20, 0]]", fillcolor="#efb083"] ;
424 -> 425 ;
426 [label="x[26] <= 0.04\ngini = 0.01\nsamples = 9\nvalue = [[17, 0]\n[17, 0]\n[17, 0]\n[17, 0]\n[17, 0]\n[17, 0]\n[17, 0]\n[17, 0]\n[1, 16]\n[16, 1]\n[17, 0]\n[17, 0]\n[17, 0]\n[17, 0]\n[17, 0]\n[17, 0]]", fillcolor="#e89151"] ;
425 -> 426 ;
427 [label="gini = 0.0\nsamples = 8\nvalue = [[16, 0]\n[16, 0]\n[16, 0]\n[16, 0]\n[16, 0]\n[16, 0]\n[16, 0]\n[16, 0]\n[0, 16]\n[16, 0]\n[16, 0]\n[16, 0]\n[16, 0]\n[16, 0]\n[16, 0]\n[16, 0]]", fillcolor="#e58139"] ;
426 -> 427 ;
428 [label="gini = 0.0\nsamples = 1\nvalue = [[1, 0]\n[1, 0]\n[1, 0]\n[1, 0]\n[1, 0]\n[1, 0]\n[1, 0]\n[1, 0]\n[1, 0]\n[0, 1]\n[1, 0]\n[1, 0]\n[1, 0]\n[1, 0]\n[1, 0]\n[1, 0]]", fillcolor="#e58139"] ;
426 -> 428 ;
429 [label="gini = 0.0\nsamples = 1\nvalue = [[3, 0]\n[3, 0]\n[3, 0]\n[3, 0]\n[3, 0]\n[3, 0]\n[3, 0]\n[3, 0]\n[3, 0]\n[3, 0]\n[3, 0]\n[3, 0]\n[3, 0]\n[3, 0]\n[0, 3]\n[3, 0]]", fillcolor="#e58139"] ;
425 -> 429 ;
430 [label="x[45] <= 0.1\ngini = 0.07\nsamples = 3\nvalue = [[5, 0]\n[4, 1]\n[5, 0]\n[2, 3]\n[5, 0]\n[5, 0]\n[5, 0]\n[5, 0]\n[5, 0]\n[5, 0]\n[5, 0]\n[5, 0]\n[5, 0]\n[4, 1]\n[5, 0]\n[5, 0]]", fillcolor="#f5d0b4"] ;
424 -> 430 ;
431 [label="gini = 0.0\nsamples = 1\nvalue = [[3, 0]\n[3, 0]\n[3, 0]\n[0, 3]\n[3, 0]\n[3, 0]\n[3, 0]\n[3, 0]\n[3, 0]\n[3, 0]\n[3, 0]\n[3, 0]\n[3, 0]\n[3, 0]\n[3, 0]\n[3, 0]]", fillcolor="#e58139"] ;
430 -> 431 ;
432 [label="x[10] <= 0.01\ngini = 0.06\nsamples = 2\nvalue = [[2, 0]\n[1, 1]\n[2, 0]\n[2, 0]\n[2, 0]\n[2, 0]\n[2, 0]\n[2, 0]\n[2, 0]\n[2, 0]\n[2, 0]\n[2, 0]\n[2, 0]\n[1, 1]\n[2, 0]\n[2, 0]]", fillcolor="#f3c7a7"] ;
430 -> 432 ;
433 [label="gini = 0.0\nsamples = 1\nvalue = [[1, 0]\n[0, 1]\n[1, 0]\n[1, 0]\n[1, 0]\n[1, 0]\n[1, 0]\n[1, 0]\n[1, 0]\n[1, 0]\n[1, 0]\n[1, 0]\n[1, 0]\n[1, 0]\n[1, 0]\n[1, 0]]", fillcolor="#e58139"] ;
432 -> 433 ;
434 [label="gini = 0.0\nsamples = 1\nvalue = [[1, 0]\n[1, 0]\n[1, 0]\n[1, 0]\n[1, 0]\n[1, 0]\n[1, 0]\n[1, 0]\n[1, 0]\n[1, 0]\n[1, 0]\n[1, 0]\n[1, 0]\n[0, 1]\n[1, 0]\n[1, 0]]", fillcolor="#e58139"] ;
432 -> 434 ;
435 [label="x[95] <= 0.05\ngini = 0.11\nsamples = 28\nvalue = [[42, 0]\n[42, 0]\n[42, 0]\n[36, 6]\n[42, 0]\n[40, 2]\n[42, 0]\n[37, 5]\n[33, 9]\n[35, 7]\n[37, 5]\n[41, 1]\n[42, 0]\n[41, 1]\n[42, 0]\n[36, 6]]", fillcolor="#fef9f5"] ;
423 -> 435 ;
436 [label="x[32] <= 0.02\ngini = 0.1\nsamples = 25\nvalue = [[36, 0]\n[36, 0]\n[36, 0]\n[30, 6]\n[36, 0]\n[34, 2]\n[36, 0]\n[31, 5]\n[27, 9]\n[29, 7]\n[31, 5]\n[35, 1]\n[36, 0]\n[35, 1]\n[36, 0]\n[36, 0]]", fillcolor="#fdf5f0"] ;
435 -> 436 ;
437 [label="x[51] <= 0.06\ngini = 0.03\nsamples = 4\nvalue = [[6, 0]\n[6, 0]\n[6, 0]\n[6, 0]\n[6, 0]\n[6, 0]\n[6, 0]\n[6, 0]\n[6, 0]\n[6, 0]\n[1, 5]\n[5, 1]\n[6, 0]\n[6, 0]\n[6, 0]\n[6, 0]]", fillcolor="#eda876"] ;
436 -> 437 ;
438 [label="gini = 0.0\nsamples = 3\nvalue = [[5, 0]\n[5, 0]\n[5, 0]\n[5, 0]\n[5, 0]\n[5, 0]\n[5, 0]\n[5, 0]\n[5, 0]\n[5, 0]\n[0, 5]\n[5, 0]\n[5, 0]\n[5, 0]\n[5, 0]\n[5, 0]]", fillcolor="#e58139"] ;
437 -> 438 ;
439 [label="gini = 0.0\nsamples = 1\nvalue = [[1, 0]\n[1, 0]\n[1, 0]\n[1, 0]\n[1, 0]\n[1, 0]\n[1, 0]\n[1, 0]\n[1, 0]\n[1, 0]\n[1, 0]\n[0, 1]\n[1, 0]\n[1, 0]\n[1, 0]\n[1, 0]]", fillcolor="#e58139"] ;
437 -> 439 ;
440 [label="x[95] <= 0.01\ngini = 0.1\nsamples = 21\nvalue = [[30, 0]\n[30, 0]\n[30, 0]\n[24, 6]\n[30, 0]\n[28, 2]\n[30, 0]\n[25, 5]\n[21, 9]\n[23, 7]\n[30, 0]\n[30, 0]\n[30, 0]\n[29, 1]\n[30, 0]\n[30, 0]]", fillcolor="#fcefe5"] ;
436 -> 440 ;
